-0.102819 -1.30812 -1.25303 -0.986788 -0.141874 -0.0318978 0.312526 -0.211967 -0.371004 -1.23813 -0.53579 -1.57171 -1.68351 -2.52096 -1.46704 -1.19136 -0.118364 -0.366748 -0.557225 -0.988156 -0.092036 -1.02131 -2.04639 -0.274852 -0.867558 -0.867192 1.33321 -0.895611 1.80145 -2.1493 0.386276 -1.06283 -0.730421 -2.0585 0.356599 -1.09052 1.62911 0.9085 2.61613 -0.451414 -0.705554 -0.962056 -0.0382082 -1.00146 0.553239 -1.19686 2.53339 0.51788 3.02856 -1.48022 -1.23789 -0.528718 -0.315758 -1.3629 -0.108244 0.42976 -0.554846 -0.396342 -1.24648 2.17627 -1.00913 0.0972486 -0.0908239 0.267446 -0.978081 -1.61543 0.23697 0.187809 -0.567102 0.516858 -0.719769 -0.16948 -1.03087 -0.825968 -1.08789 -0.608256 -1.75243 0.787835 -0.620303 1.32913 -1.00601 -1.01884 0.311385 -1.73853 -0.512179 -1.2407 0.00361349 -0.114396 -0.335604 0.272713 -0.312104 1.53962 -0.305429 -1.43258 -0.136979 -0.780698 -0.246528 -0.29354 0.306613 0.34329 -0.0483894 -0.136271 -0.305584 -0.228342 -0.873857 0.778146 0.913072 0.343869 0.252977 0.608767 -0.205218 -1.0936 0.519698 0.23699 -1.11839 0.89952 -0.312482 -0.794654 -0.622558 -0.144864 0.472154 0.0472348 -0.391689 0.618406 0.563953 0.0627034 0.238361 0.355236 0.790175 -1.43438 -0.339672 0.413931 -1.24049 -0.935114 -0.75721 0.619487 0.0689242 -0.0386119 0.366268 -0.935416 -0.665637 0.509958 -0.559485 -0.48805 0.121163 -0.227092 -0.162959 -0.376213 0.66702 -0.382533 -0.816784 -0.865769 -0.706311 0.225147 -0.150473 1.26862 -0.848988 -0.622412 -0.266911 -1.28776 -0.539595 -0.811457 -1.16819 -1.224 0.655033 -0.826042 -0.470582 -0.348228 -1.04865 -2.19476 -1.21475 0.796501 -0.127824 -0.0901545 -0.857921 0.387611 -0.835891 -0.945244 -2.28715 3.75917 -0.476565 0.533024 -0.682546 1.87963 0.778045 -0.857468 -0.740107 -1.25569 -1.63049 -0.652052 0.485533 -0.0849123 0.418586 0.118762 0.470356 -0.341105 -0.925442 0.0119045 -1.103 -0.88286 -0.449318 0.602976 -1.02906 -1.03036 1.14125 0.649236 0.555179 -0.252931 0.316851 -0.57455 -0.92559 0.0836955 -1.38549 0.213896 1.08145 1.54159 0.700999 1.16 -0.504385 -2.40732 -0.800442 0.00198465 2.12754 0.272906 1.01344 0.934591 -0.411642 -0.511746 0.645029 -3.0297 -3.83592 2.91243 -0.669092 0.640116 0.267952 -0.132434 -0.73203 1.52278 -0.373701 -0.739612 -1.24979 1.42444 0.67353 -0.00508305 -0.0410141 0.00951596 0.0822129 -0.907839 0.234249 1.07357 0.487519 0.455911 -0.124138 0.394088 -0.628225 -1.88968 -0.689229 1.86278 -0.404371 -0.44894 0.0521628 0.309317 -0.102624 -0.365273 0.251233 -0.205853 -0.439724 0.268134 -0.738077 0.0619573 1.26963 0.524168 -0.905484 0.344235 0.547791 -0.797987 0.261783 -0.508996 -1.04204 -0.366265 -1.56263 -0.645651 1.07742 -0.861008 0.209696 2.11418 0.00930319 -1.01273 -1.34813 -1.78709 2.07604 0.0482586 -1.08904 1.5869 -0.0078281 -0.884317 -0.54095 0.556447 -0.224422 -0.768014 0.202847 1.23668 -0.803457 -0.809599 0.38219 -0.169915 -0.766395 -1.05424 -0.839786 -0.695451 0.600802 -0.918773 -1.27402 0.0222538 0.243783 -0.61111 -0.103275 -0.862232 0.0926764 0.13901 -0.525457 -0.80635 -0.640401 -0.466771 -0.166333 -0.340633 0.570806 -1.20782 -0.496343 0.155084 0.0274298 0.698425 -0.656902 -1.06215 -0.225451 0.428938 -0.402937 0.00908954 -1.12135 -1.43102 -0.292398 0.591945 0.273466 0.275397 -0.489286 -0.90421 -0.417638 -0.276168 0.386855 -0.789781 -0.665491 0.470402 -0.893745 0.0758474 -0.0698251 -0.64318 0.0354864 0.393956 0.349705 -0.617929 -0.133025 -0.226173 0.767269 -0.687942 0.408091 -0.118395 -0.467774 0.503126 1.0029 0.549993 -0.0323343 0.802129 -0.587803 -4.36008 0.299155 -1.37553 1.48964 0.935609 0.285912 0.317693 1.60796 1.45853 -1.99594 -2.42878 0.224149 1.14341 -0.301559 0.134115 1.20153 1.04557 -0.222347 -0.232113 -0.286147 -2.34144 1.84529 -0.968272 0.973866 0.0759463 1.00764 0.374752 0.754963 0.109651 0.723834 -0.581808 1.0423 -0.342496 -0.132137 0.825628 0.314719 -0.673687 0.712134 0.956598 0.24732 0.208932 0.619332 -0.881433 -0.71539 0.595388 -0.475886 0.29513 -0.867261 1.43667 -1.11641 2.50693 -1.04846 0.0295976 -1.35388 -0.48528 0.806641 0.27165 -0.462811 -2.7711 -0.481427 -0.293899 0.496461 -1.18411 3.62554 -0.295993 -0.942037 -0.562856 -0.58402 -1.23824 -0.731031 0.830377 -0.422703 -0.512415 -0.180696 -0.212598 -1.29646 -0.591533 3.31338 0.509621 -0.963334 1.36302 0.030496 -0.664976 -0.51732 0.806978 -0.511456 -0.568867 -0.608219 0.391045 -0.342292 1.68826 -0.432217 -0.00147193 0.106146 -0.862216 0.428146 -0.915374 0.329324 -1.59485 0.590699 -1.18896 -0.73129 -0.968344 -0.689066 1.16131 0.208668 2.02491 -0.891308 0.286042 -1.69698 -0.250823 -1.37092 -1.53211 0.540546 -0.317896 -0.45477 -0.931512 -0.660496 -1.79276 1.77952 -0.922037 -1.51314 3.80616 -2.29185 -0.328106 -1.27531 -0.572291 -0.636245 0.320025 -0.0798528 0.631994 -0.839593 -1.44566 0.261444 -0.978079 0.518569 -0.53421 -1.17101 -1.66177 -0.651928 -0.943252 0.0659821 -0.591456 -0.213857 -0.75645 -0.606749 -0.062486 1.71569 -1.06934 -1.75058 -2.69577 -1.46426 -2.84734 -0.432174 0.205067 -0.116692 -0.409267 0.391221 0.0568156 -2.08319 2.21949 -1.88641 -0.273496 0.662204 1.92015 2.38493 -0.0177227 1.53413 -1.93969 1.32107 -2.5036 0.319784 1.22141 1.46471 1.56438 0.0607513 -0.147129 -1.52783 -1.29126 -0.128272 -0.466922 0.929898 -0.897711 0.606174 -1.48792 -0.86996 -1.08022 -1.33991 0.513766 -1.12953 -1.23505 -0.545122 3.6695 0.038512 -0.339553 -0.652031 -0.704819 -0.30771 -0.839285 -0.422381 -0.53673 -0.474885 0.415266 -2.00222 -0.551645 0.787138 0.331316 0.580133 0.421031 -0.626936 -0.631395 -2.31523 -0.234758 0.623223 -1.0334 1.09121 0.243193 0.273967 -0.938047 0.738476 -1.51395 -0.95538 -1.49469 1.56652 2.6393 -0.198218 0.0239618 -0.536502 1.36966 -0.182492 -0.656504 -0.0341316 -0.685543 1.09845 1.35294 -0.327667 -0.694298 0.528525 -0.393114 -0.346711 -1.39208 -0.233635 -0.819961 -0.984574 -0.160133 -1.9668 -1.33923 0.514272 -0.131065 -0.809649 -0.432494 -0.321302 -0.824317 -1.37666 -1.66959 0.718075 -0.55949 -1.57209 0.00337246 -0.493004 0.064811 -0.256238 -1.83693 0.044421 0.623562 0.68081 0.431487 1.53901 0.555689 -0.836517 0.408349 0.636592 -0.127345 0.143411 -0.20505 -1.01192 -0.272706 -0.0023042 -0.336656 -0.432253 0.460007 -0.721164 -0.3422 1.5835 0.0603827 -1.34084 -0.5427 -1.26941 -0.225389 -1.45109 -0.898674 -0.568242 -0.658632 -0.427429 -0.452642 -1.30224 0.746337 -0.506637 -0.824248 -0.478707 -0.0749403 -0.927018 -1.40089 -1.76589 -0.888016 0.227512 -0.064248 0.186387 -0.538581 -0.994963 -0.507266 -0.378531 -1.35097 -1.54513 -0.759048 -0.453956 0.314234 -1.73666 1.36428 0.340666 -1.04785 -0.418876 0.236864 -0.25738 0.552885 -0.538271 1.66718 -2.42471 -0.774585 -0.835266 0.226761 -0.700575 -0.665913 0.254547 -0.156955 0.108282 -0.547001 -1.42144 -0.106922 -0.772763 -0.241074 -0.28752 -0.047421 0.2387 -0.653236 0.496193 -0.0764683 0.425205 0.032332 0.265719 -1.09286 0.0430711 0.621388 0.299888 0.9991 -0.321877 0.747002 -0.136957 2.01283 -0.589614 0.309456 0.297496 0.168698 -1.50449 -2.49843 -1.13853 -1.82054 0.129039 -1.84807 1.03125 -0.16724 -0.315273 -0.374779 -0.845043 0.253637 -2.10863 0.837289 -0.46114 2.29011 -0.0132025 -0.602777 -0.641527 -0.995718 -0.825616 -1.07663 4.29415 0.396258 -0.194729 0.0464977 -1.23018 -0.894328 -0.207742 1.08039 -0.497172 1.60828 0.836586 0.997076 -0.398777 0.534362 -0.409598 -0.931556 -1.73489 1.26525 0.220248 -1.60129 1.65999 -2.23774 0.0432295 0.998904 -0.408634 0.500741 -0.766606 -0.567232 -1.30832 -2.42911 -1.55133 -0.95789 -2.27241 0.794168 3.35743 0.570109 -0.63056 -0.338121 -0.65342 -1.00195 -0.261005 0.665384 -1.13741 -0.278827 1.74086 0.477442 0.123057 -0.2214 -0.335322 -0.32583 -0.508455 0.846286 -0.751172 -0.28771 0.346161 0.719758 -1.71242 -1.2754 -0.477854 -0.256534 0.799094 -1.48856 0.0648582 0.707323 -0.192331 -0.00801049 -0.945717 0.18357 -0.605748 0.577712 -0.733713 -2.08109 -0.0973915 -0.821963 2.30355 -2.80112 1.2324 -0.569131 -0.5589 -0.0411768 -1.21263 0.854171 -0.353587 -0.107975 -1.60269 -2.01229 -0.896807 -0.991379 0.164127 0.199428 -0.36652 -1.94542 1.6413 -2.35833 -0.164374 -2.60015 -0.171209 -0.421735 -1.68365 -0.453271 -0.0994342 -0.980288 1.15551 -0.877708 -0.163882 0.550371 -0.821463 -1.03809 -0.259257 -1.46462 -0.872159 1.3416 -0.502624 -0.121067 -0.340031 1.65243 -1.04988 -1.42155 -0.30818 -0.673677 0.122213 -0.722801 -2.8059 -1.31939 0.883331 -0.0261529 -1.68295 0.172294 -0.889314 -0.374584 0.467543 -1.01379 -1.17269 -1.20028 0.0725719 0.720563 1.67558 0.739443 0.265794 -0.93719 0.235576 -0.460681 -1.4447 0.818632 -0.68633 0.884064 -0.103297 0.31198 -0.0830109 1.89788 0.511221 -0.938239 -0.0775289 0.255721 0.738064 0.598574 -0.0145011 -0.44978 -0.705382 0.398689 -2.36849 -0.855013 1.15132 -0.147422 0.953371 -0.557399 -0.863259 -0.215036 -0.314548 0.404977 -1.46134 -0.415695 -0.412415 0.731105 0.192779 -0.304155 -1.32884 0.90287 0.193965 -0.99132 1.48618 -0.0571416 -1.22867 -0.210336 -0.580658 -1.68625 0.0606389 0.130769 0.111211 -0.414894 -0.361541 -0.373847 -0.344444 0.836682 -0.483051 0.410987 -1.22933 0.977529 -0.475487 -0.297886 -0.305205 -0.173728 -0.151499 -0.373497 0.856368 0.00618607 -0.187088 -1.14291 2.4619 0.539448 -1.03311 0.661872 -0.102676 -0.946606 -0.681812 1.0788 -1.061 -1.72608 -0.120174 0.147087 -1.16681 -1.58422 -0.923813 -1.68268 0.935318 -1.14829 -1.64494 -2.3931 -0.659535 1.05921 -0.89215 1.3096 -0.165027 -0.441805 0.192547 -0.732576 -0.85076 1.67218 -0.614084 1.5029 -1.49623 -0.243109 -1.71049 -1.19094 -0.947311 1.96088 0.847466 -0.881978 0.75889 -0.968418 -0.241745 -0.142013 -1.42109 -0.256155 -0.243639 0.921601 0.523943 0.252524 0.32631 -0.361527 0.200157 0.160948 0.578631 -0.240987 -0.468428 1.17743 0.289634 -0.434756 -0.338064 0.237139 -0.512326 0.0153251 0.348266 0.366937 -0.714909 1.07869 0.115261 1.67777 -1.22151 -1.88919 0.0894214 -0.214541 -0.0873044 -0.403443 -0.0350383 -2.87731 0.136867 -1.80712 3.75949 -4.98844 -0.468363 -1.10313 -0.820964 0.234733 0.347517 -1.32261 -2.41243 4.31505 -0.117407 -1.17303 0.186454 0.22501 -0.223058 -1.17062 0.174506 -0.72334 0.0169 1.17836 1.18742 -0.0715663 -1.55242 -1.4113 -0.502964 -0.180033 -0.466752 -0.228183 -0.274451 0.891188 1.88835 1.23728 0.248946 -0.0318568 -0.307586 -0.576408 0.35588 0.213095 -0.397706 0.0035003 2.52581 -0.420953 3.17536 -0.858148 1.50347 -0.183793 -0.643855 0.0158904 -0.0339753 0.454581 -4.67213 0.757471 -2.16464 1.26656 -0.0378362 0.147027 0.216929 -3.10567 3.02759 -0.844405 -0.719084 -2.0544 1.31384 -0.620607 0.550282 0.854695 0.133952 -0.804498 -0.0170423 0.771499 0.477355 -0.29649 0.241742 0.0464166 -0.111053 0.854025 0.206726 0.722292 0.515348 0.790973 -0.193202 0.50764 -0.0940039 -1.11163 0.0180885 0.817343 0.264575 0.856375 0.256418 0.34116 0.0448395 -0.0193205 0.319693 0.299526 0.376215 -0.239704 0.699449 0.503882 -0.0120148 -0.713082 -0.870718 2.62439 0.0966425 0.453184 -0.145094 0.134823 -1.08383 0.506699 -0.931235 1.92772 -2.70462 2.2471 -1.71249 1.84208 -0.333273 0.617822 -0.356009 -0.273575 -0.0529342 0.943809 -0.517396 0.711731 -0.805436 0.941263 -0.398887 -0.804081 0.48356 -0.306899 -1.16728 0.311135 -1.29427 0.359693 -0.408179 -0.0635558 -1.65777 -0.196698 -0.528578 0.977295 -0.404662 -2.01433 -0.510987 -2.84737 0.806356 0.589128 -0.852725 0.144884 -0.97675 2.47732 -0.434717 -2.35467 -0.796008 -2.96477 -0.845915 0.0434494 0.551217 0.0207595 -0.966467 3.32753 0.773492 2.73687 1.27879 -0.251658 -0.693068 0.510757 -2.44523 0.160222 -2.11348 2.3649 -1.6275 3.0022 -0.997428 0.231095 -0.465507 -0.145269 -1.2409 -0.595258 -1.98269 -2.04702 -0.178769 -0.345975 0.638712 -0.681645 0.209244 -1.02814 -0.0868853 -0.248128 0.299154 -0.336379 0.472782 -1.3805 0.136781 -0.673344 0.167696 -0.276683 0.353621 -0.657532 -1.22361 -1.18078 -0.344006 -0.106727 -0.178831 -0.575388 -1.61102 1.53928 -0.385492 -0.925437 -0.599087 -0.0359736 0.465235 -0.399975 -0.0420963 0.928112 0.205196 1.10269 -0.746209 0.0179979 -0.501026 0.0529918 -0.0224515 -1.37698 -0.245596 -1.24055 -0.928714 -0.168212 -0.545155 0.478582 -0.369575 -0.60591 -0.0366499 -0.244059 0.027707 0.505564 -0.613698 0.551662 0.775389 -0.215868 0.116133 -0.558089 -1.12045 0.332886 -0.0374529 -1.01157 -1.57625 0.422083 0.91007 0.697579 1.43163 0.000233238 0.4924 -1.53365 -0.237346 -0.812933 -2.80834 -0.492255 -0.516349 -0.234279 1.87897 0.903424 1.18624 0.0257354 0.285177 -0.646401 -0.351645 -2.5786 1.04774 0.705566 -1.11095 0.639377 -1.13479 -1.15006 -0.458453 1.71664 -0.79823 -0.526191 0.668116 -0.0304216 0.165375 0.0312635 0.313886 0.291589 0.431767 -0.0168715 -0.183954 -0.82372 1.06597 -1.75561 -2.04827 -1.19976 2.09598 -0.1633 0.78247 -1.02069 -0.209853 0.175768 -1.11494 -2.08365 -1.92492 -0.180232 -2.33176 -0.264025 0.61212 0.0546201 0.141648 -1.00683 -0.952895 -0.940869 -0.173984 0.278745 0.800179 -0.076982 -0.863072 -0.458745 -1.06096 -0.309587 0.39133 -0.783788 -0.118493 0.470557 1.83553 0.933234 0.717994 -0.411848 -0.970825 0.611044 0.494457 -0.124092 0.400605 -0.455669 -0.0822644 -0.701212 0.111955 -0.55762 -0.64536 -0.612222 0.273704 -0.20383 0.426507 1.04815 0.952959 -1.09465 0.709233 -1.39436 -0.809371 -0.177802 -1.45072 0.146295 -1.67955 -1.2026 -1.31833 0.772953 0.556774 0.551289 -0.351765 0.22442 -2.91737 -0.384894 0.0203473 -0.16747 -0.607836 0.136581 0.914959 -1.32301 0.87869 2.01423 0.819492 -1.97654 0.962901 -0.0946488 -0.675141 -0.910996 0.744707 0.0742254 0.414984 0.0909225 0.17409 -0.400238 -0.119871 0.408287 -0.391155 -1.2204 0.0220655 -0.601722 -0.156042 -0.904961 -0.292565 -1.05469 -0.623143 -0.131115 2.00487 -0.579043 -0.570525 -0.543628 -1.20736 -0.562845 -0.371189 -0.530382 -0.608676 1.1855 -0.663287 -0.757278 -0.932588 -0.894626 3.45861 0.928377 -1.05909 -1.19099 -1.34177 -0.319847 0.215014 -0.381434 -0.440431 -0.780585 -0.0932082 -0.502679 0.135813 1.16062 -0.764955 0.104508 -0.55572 -0.590168 3.29791 -0.713764 -0.0537686 -0.555807 -0.404597 -0.235387 1.45751 -1.69537 -0.199758 0.289682 -1.32781 0.439986 -0.669193 0.81756 0.519739 0.399327 -1.05978 0.485874 -0.607869 0.334725 0.4334 -0.174833 -0.689213 -0.546962 -0.686311 -0.913508 0.126539 -0.481532 1.32712 0.362821 1.11366 -0.26315 0.319921 -0.309554 -1.60249 0.281164 -2.47525 -1.42611 -0.877089 -1.20553 1.86571 0.195863 -0.582363 -1.46214 -0.312448 -2.21568 0.346252 3.03231 0.540055 -0.359471 1.00393 -0.00873441 -1.0498 -0.208646 -0.176592 0.377613 -0.289076 -0.203238 -0.818175 0.4615 0.27647 -0.851928 -0.298229 0.107793 -1.49154 -0.900076 0.307302 -0.525199 1.29424 -0.58207 0.111903 -0.00515771 1.63851 0.297001 -1.74919 -1.1599 -1.86697 -1.0835 -1.37677 -0.217203 -0.625996 -0.630723 0.760152 0.0497237 1.09887 -0.264767 -1.47491 0.383554 -0.37457 -1.50496 -0.0799038 -0.451639 0.931872 0.418353 0.771959 0.128421 -1.74331 -1.28745 0.594433 -1.0218 0.34899 -0.637319 0.160724 -1.20671 -1.24707 -0.583857 -0.113239 -1.19929 0.576285 -0.12225 0.640392 -0.768272 -0.943142 -1.7304 -1.56527 -0.132284 -1.84337 -0.511104 -1.0604 -0.0647361 -2.04527 -0.00709396 -2.0046 -0.161323 -0.862193 -0.614068 -0.0190605 -1.44921 -1.53166 -2.09056 -2.63742 1.35644 0.562551 3.13831 -0.939846 0.073475 -0.73929 -2.26839 -2.19814 -2.80824 -0.850931 1.75052 2.62752 2.87531 1.50246 -0.501945 -0.174426 0.431722 -1.77173 1.13877 -0.1961 2.69552 0.157695 2.63839 -0.579955 -0.0395895 -0.852437 -0.200999 -0.765634 0.027399 0.38611 0.484156 -0.812606 -0.406054 -0.687057 -2.73293 -0.594588 -0.935525 -0.810505 -0.313694 -0.336858 -1.06941 -0.128626 0.129141 -0.254423 -1.7546 -0.412469 -1.90758 -1.08668 -3.17904 -1.818 -3.7684 -0.585464 -0.244716 -0.00269045 -0.258435 -0.115084 -1.80644 -1.98283 -1.7762 -1.4354 -2.07096 0.245706 -0.462511 0.333504 0.385147 0.825375 0.0890124 1.8442 3.79757 2.91064 4.81722 1.00254 0.64257 0.268572 -1.9009 1.33269 -0.724806 2.29334 0.779526 1.86322 1.81306 0.872991 -1.49673 -0.274742 -1.1292 -2.6355 -1.5797 -0.595188 -0.478247 -0.142455 2.85026 0.240509 -0.710569 -1.16547 0.101328 -0.683467 0.839649 -0.823322 -1.12045 -1.42834 -1.27624 0.34715 0.54783 -0.537874 -1.4333 0.518927 -0.520334 -0.87186 -0.14572 -0.824784 -0.183013 -0.679778 -0.339644 -0.882761 -0.400755 0.727735 -1.04305 0.135572 1.71253 -0.8725 -0.786708 -0.96628 -0.943827 -1.01622 2.09511 1.13133 -0.714203 -0.306062 1.18291 0.246116 -0.584095 0.0265581 0.369109 0.536429 -0.712127 0.12761 -0.162841 0.472061 -0.548986 0.769722 -0.772946 -0.336881 0.0452435 -0.398274 -1.76469 -0.286234 -1.43385 -0.592042 -1.00936 -1.85001 -0.372121 -1.51584 0.095824 -0.0599713 -1.39541 -1.21807 -0.0621003 -0.296282 -0.935524 -2.3316 -2.08296 -1.43393 -1.79695 0.981543 -0.0672444 0.497009 -1.03234 -0.66612 -1.53982 0.717986 -1.74323 1.88155 1.37506 1.76445 1.14287 1.14172 0.347848 0.0651849 -1.8926 0.93721 -0.864048 2.01453 -0.501715 2.59366 -0.500855 0.823356 -0.171346 -2.19254 -0.537312 0.119739 -1.03647 -0.263876 0.602161 -0.84057 -0.28044 -0.349213 0.503211 0.214026 -1.13606 0.634069 0.249122 0.446922 -0.80993 -1.1894 0.454467 -1.22511 -0.517707 0.739494 0.311857 -0.412875 0.306434 -1.27816 -0.340325 -0.852242 -0.502456 -2.00384 0.159927 -0.0455095 -0.323544 -0.255944 -1.91992 -0.631455 0.621343 -0.0851275 -0.172923 -1.35361 -0.924603 0.638805 -0.775818 -0.716499 -0.108912 0.700084 -1.07687 -0.797476 0.261303 -1.01787 -0.643535 -0.951092 -0.271447 0.253029 0.468292 -0.508382 -0.586622 0.654406 -0.390853 0.430822 -0.387781 -0.100067 0.490892 -1.42362 -0.860433 -1.13633 -1.61025 -0.172773 1.52234 -0.483975 0.716082 -0.092502 0.279099 -0.952733 -0.736999 -1.11628 0.764915 -0.594525 1.24485 0.146528 2.64324 -0.302269 -0.0476497 1.69485 -0.483576 -1.66029 0.448717 1.9922 -1.72716 -1.02578 1.03382 2.86607 -1.58439 0.197705 0.167948 -0.818341 0.939031 1.9949 -0.486556 -0.93919 -0.021325 -0.640612 -0.469976 -0.442121 -1.46161 -0.177054 -1.09734 -0.759134 -0.381068 -0.32411 0.902661 -0.867763 0.226504 -0.259891 -0.375656 -0.593301 -0.249682 -4.15295 0.0610786 -0.0943159 -0.0417569 1.79093 0.180453 -0.461784 -0.797493 -1.33084 -0.125506 0.339937 0.142957 -0.129187 0.281511 -0.16646 0.135198 0.191153 0.695124 -1.35351 1.23656 -1.1395 0.0177659 2.11319 -1.37906 0.785985 -1.68205 -0.716214 -0.512471 -0.0932923 0.246804 0.454707 0.0141902 0.403087 -0.664874 -0.0521676 0.379958 -0.652205 -1.01964 0.424411 0.00101716 -0.756128 0.674332 -0.0957801 -0.782461 -0.880263 0.573189 0.13845 -0.886529 -0.906936 0.538267 0.232351 -1.11803 -0.0572301 0.461406 0.535274 0.426932 -0.168869 -0.935638 -0.938685 -0.37318 -1.0796 -0.694548 -1.0493 0.164708 -0.496025 0.11849 -0.850875 -0.700135 -0.642762 0.497984 0.187103 -0.0690852 -0.216562 -1.19053 0.139185 0.471663 1.13593 0.126543 -0.249828 0.331247 -0.902602 0.20947 -0.248476 -0.0675207 -0.857111 -0.6195 -1.05265 0.378296 0.658316 -1.83595 -0.243088 -0.560135 0.176635 -2.05374 -1.221 -1.14489 -0.497556 0.0410638 -0.661291 1.00091 -0.193226 -0.906958 -1.62328 -1.43458 -1.33377 0.166655 -1.33105 0.804205 -0.0323815 0.395453 -0.996724 -0.287329 -1.09451 -0.416785 0.667851 0.661426 -0.449392 -0.486232 0.181657 -1.01144 0.143986 0.508186 -1.02258 -0.887617 0.0353564 0.241181 -0.882885 0.0648911 0.444116 -0.792856 0.022929 -0.22436 -0.795398 0.506295 -0.897672 0.377626 0.373771 -0.495023 -0.437635 0.449335 -0.326437 0.503104 -0.749752 -0.76085 2.25625 0.571118 -0.835624 -0.162737 -0.883127 -0.344836 -0.0349427 -0.0559367 -0.339047 -0.104439 -0.950985 -0.809673 -0.720574 0.58457 0.697717 0.235121 -1.01396 -0.210558 -1.3526 -1.01525 -0.298367 1.06588 0.492309 -0.462759 0.187426 0.144108 1.94039 0.123821 0.17609 -0.441423 -0.745551 0.1689 1.24181 -1.83459 -0.88352 -0.666594 -1.21336 -0.058163 -0.971889 0.00135725 1.28244 0.58237 0.329543 0.0630748 -0.494882 -0.446567 -0.321377 -1.57407 -1.30539 -1.84046 -1.42692 2.03088 0.369386 0.0302091 -0.208633 -0.523743 0.367394 0.231676 -1.78562 -0.0708835 0.618597 0.0430387 0.324898 -0.261615 -0.437986 1.12508 -0.933966 2.87379 -1.55529 -0.115988 -0.453774 -1.55611 -2.21545 -0.0622852 1.37448 -0.655474 -0.514042 -1.05032 -0.938016 -1.68459 -0.322894 2.43495 -1.71534 -1.46891 -1.24442 0.46077 -1.00483 0.203393 -0.839689 0.00409697 -0.996046 0.387818 -1.44851 -0.206472 0.884617 -0.082656 0.135297 -0.949118 1.02922 -0.495221 -1.13684 -1.89965 -0.186352 -0.254158 1.72281 0.918972 0.923751 -0.257324 -0.926143 -1.68621 -1.69605 0.568516 -0.881166 -0.892459 1.05048 1.59181 1.51113 0.385806 1.69138 -0.591234 -1.44998 0.0914833 -0.932741 -2.04481 -0.132916 0.291462 -0.295978 0.134723 -0.267326 -0.309875 -1.07878 0.133909 -0.984233 -0.0173767 0.32681 -1.04776 1.03738 -1.2927 -1.12578 -1.47872 1.66793 0.164563 -0.379538 -0.935243 0.0874088 0.0515173 -1.01119 -1.54494 -1.06986 1.19871 0.173132 -0.515934 0.00962807 1.23396 -0.150351 -0.906421 -1.48954 -1.12036 -0.238617 -1.32661 -1.00761 -0.221468 0.312698 -1.4195 -2.47612 0.825383 1.89737 -1.17453 -0.0466258 0.152439 -0.911202 -1.09247 -0.378875 -0.73218 1.16753 -0.750445 2.30943 0.869825 -0.386252 1.33609 -0.991394 0.717264 0.554368 0.998624 -0.689155 -1.33576 1.36145 -0.228586 0.0553532 -0.371379 0.028053 0.241141 -1.17808 0.484138 -1.04968 -0.72972 -0.0349789 0.331813 -0.688784 -1.01892 -0.868081 -1.15723 0.273104 -1.40993 1.11875 -1.86233 2.87191 -0.134947 2.96727 -1.2641 -0.216735 -2.02947 -2.4568 -0.895198 -2.59669 -1.94183 1.52576 2.92302 2.99742 -0.200464 -0.275296 -1.45306 -1.37949 -0.712774 -2.3498 -1.54771 1.85958 0.88946 1.53003 -1.69774 0.089387 -0.261603 0.22667 -0.943654 0.466816 -1.70131 -0.105497 0.157309 0.0735267 -1.80166 -0.225729 -0.476514 -0.171474 -1.28504 0.0570588 -0.967399 -0.281652 -1.6022 -0.621007 -2.31196 -2.53919 1.37077 -1.08918 2.30516 -0.964483 1.47528 0.0384974 1.39029 -1.42928 -0.309409 -0.444887 3.13627 -0.358646 -2.86366 -0.0719411 -2.19917 1.84387 0.54243 0.0832751 -0.0574688 -0.674108 1.47995 0.669038 -3.08839 -0.0354581 -1.49315 -0.488242 0.896319 -1.53673 0.549654 -1.20962 0.429921 -0.595239 1.98362 -2.73205 0.154193 -0.0961549 -0.0418806 -0.535468 -0.188325 0.203679 -0.580872 -0.567608 -0.344425 -1.48142 0.0766876 -1.35711 0.488856 -1.48883 -0.534315 -1.67702 -2.85551 0.427637 -1.53416 1.95771 -0.338309 1.22768 0.943457 0.384065 0.697154 0.289944 -0.678543 -0.16204 -0.650808 -1.54522 -0.555684 -2.01681 2.0283 0.321287 0.393805 -0.231546 -0.00148943 -0.796379 -0.330779 -0.579706 -2.01457 -1.48446 0.112746 1.14557 -2.84926 -0.855784 -1.17444 0.442014 -1.30805 0.243614 0.0135344 0.388043 3.39112 0.182376 0.538351 -0.392389 -1.36913 -0.337127 -1.14081 0.670866 -1.19158 0.538257 0.46896 0.135516 0.013453 0.47695 -0.0163946 -0.714319 -0.224145 -0.0835044 -0.170658 -0.900618 0.0666571 -0.263755 -0.0595366 0.526046 0.639079 -0.978346 -1.18711 -1.07379 -0.967111 -0.286891 -0.586984 0.0398957 -0.316009 1.50107 -0.524851 1.02174 0.565258 -0.274832 -0.0512173 1.10559 -0.839944 1.16861 0.27941 -0.0441435 1.80527 -0.589429 0.359759 0.609273 0.18611 -0.155002 -0.544089 -0.15697 -1.6084 0.971554 -0.876035 0.397532 0.236453 -0.058396 -0.52584 -0.940751 -0.757605 -0.142005 5.09338 0.0737146 -1.50219 -1.0852 -1.33961 0.158025 -0.694445 -1.32175 0.163096 0.899808 -1.24974 -0.0188517 -0.417598 0.257012 -1.16814 -1.04698 0.0601893 -1.45461 -1.04989 -1.6101 0.0400672 -0.661991 -1.61548 0.295671 0.0108599 -0.00553959 -1.17134 -0.716605 -1.22554 -1.86642 -0.552181 0.165898 -2.11077 -0.843725 -0.618606 0.507465 -1.55047 0.33781 0.244327 0.746962 2.59791 1.67376 -0.054803 0.481653 -1.33921 -0.440567 -0.5018 2.03885 -1.64802 1.74608 1.12697 1.49634 0.116452 -0.282538 -0.422579 -1.42583 -0.26749 -1.05539 0.604442 -1.15978 -0.787771 -0.353024 -0.984899 0.251684 0.520841 -0.688576 0.5997 0.799316 -0.824252 0.327889 0.18829 0.397301 -1.86543 1.23071 -1.15896 -0.708396 -0.281879 -0.978948 0.147153 0.257571 -1.1016 -2.1353 0.084649 0.731665 -0.0379622 -0.309738 0.413102 0.20208 -1.11442 -0.971508 -0.409092 -1.28622 1.35279 -0.355287 -0.293424 0.0577404 0.119368 0.134326 0.197825 -0.188601 0.046324 -1.13699 0.133036 -0.207738 -0.833211 -1.30197 0.225583 -0.334387 0.0785095 -0.526907 -0.682063 -1.7754 0.427905 0.379401 0.230208 -0.397744 0.186483 1.10963 -0.181409 0.118295 0.0630441 -0.558608 -2.45927 0.567932 1.19793 1.2516 -1.74591 -0.888286 -0.0271096 -0.553989 -0.0897622 0.266112 0.176547 -0.431191 -0.0654196 0.0922832 -0.77532 0.488577 -0.243462 0.246478 0.877988 -0.581401 -0.766835 -0.304621 0.555249 -0.296355 0.299844 0.418128 0.928787 -0.850142 -1.49918 0.435107 -4.88961 -0.523263 -0.106884 -0.206555 -0.666971 -2.08114 0.369577 0.166045 1.26275 -1.46667 -1.18599 -2.84862 0.327835 0.594374 -1.89071 -0.546931 0.0795741 0.775329 0.263718 0.360953 -0.386225 -4.05759 -1.25546 -1.98599 -0.723908 0.967608 -0.19706 -0.336621 -1.25857 -1.49451 -0.571006 -0.24098 -0.405797 0.988269 0.264356 -1.03764 -2.35712 0.327157 1.85989 0.926862 -0.800311 0.0361528 0.543965 1.73276 0.761633 0.614804 1.12075 1.08965 0.705792 0.783945 -1.82923 -5.60377 -5.11943 0.0987923 -0.146286 -1.07367 -1.72782 0.195665 -0.766598 -1.21264 -0.250452 -0.950527 -0.0824063 -0.865316 0.327282 -1.07521 -1.27835 1.2712 -4.19526 1.2064 0.877329 -0.467302 -2.62912 1.74099 0.725917 -0.653372 -0.504923 -0.873483 -2.12353 -0.0333611 -0.141784 -0.581728 -1.38557 -0.622309 1.34546 0.616559 -2.58971 -2.63205 -0.0382788 1.53223 -2.15416 -0.270905 -0.5682 -0.316765 1.20088 0.470062 1.16725 -1.96554 -1.56498 0.0213117 -1.4145 -4.29686 -5.60196 -4.96624 0.00822016 -0.1839 -0.588569 -0.981206 0.0610238 -0.105692 0.460032 1.01398 0.579201 -0.31613 1.06425 -0.872622 -0.516418 -0.322795 0.561728 0.0888515 1.5783 -1.80908 -0.829777 -1.0487 -0.211548 -2.74498 0.417061 1.95444 0.145715 -2.864 0.770013 0.254914 0.656611 -1.74499 1.45097 -1.03309 -1.6387 -1.68028 -1.00534 0.470568 0.245987 0.425518 -0.0285968 1.22224 -0.681579 -1.57087 0.0828543 -0.764766 0.642874 0.425615 -3.43373 1.46474 -5.12642 -2.31794 -1.9705 -0.0879412 0.156528 -1.26691 -1.52428 -0.0864775 -1.48383 -0.290043 0.289281 0.547481 0.0814138 -1.28006 -2.02837 0.480015 0.30293 0.0864475 0.201329 -0.720153 0.225853 -0.20432 0.730927 0.724142 1.15911 -0.262668 0.383007 -0.185472 -0.203909 -0.369199 -0.0758096 -0.605604 0.0543526 -2.58403 0.60254 0.322935 0.12018 -2.3008 0.0604255 -0.0162506 -0.540415 -0.0850731 -0.166637 0.40615 -0.492707 -0.212798 -0.313286 0.238968 0.506684 -1.49573 0.139295 -6.49282 0.571812 -0.614341 -0.0826731 -0.020306 -2.81968 -1.65426 -0.219349 -0.252136 -0.926342 1.08857 -2.87645 0.317931 -0.642705 -2.08497 0.028299 1.17133 -3.07558 0.304764 0.601188 0.589051 -0.185935 -2.51782 -0.336411 0.234305 0.499585 0.224374 -0.567272 0.338541 -0.459138 -3.49112 0.0921733 -0.362544 -1.90022 2.08684 0.574508 1.14477 1.15924 -0.0992404 1.3337 -0.897785 0.531637 1.07756 0.786127 0.445532 0.45268 -0.4178 -0.135184 0.346878 0.61487 1.54406 -0.339315 -7.67306 -0.319703 0.502156 0.322595 -1.06238 -3.15734 -0.0302302 0.0172058 -0.335214 0.0759425 0.0607985 -1.31956 -0.630583 -0.557931 -0.868212 -1.45153 -1.1392 -1.21553 0.0636905 -1.1419 -1.55358 -1.7207 0.212411 0.313784 -0.307161 -1.23728 -1.77393 -0.406779 -0.510935 -1.86617 -0.348561 0.322544 -1.64378 0.536216 -1.30918 0.32868 -0.602008 -1.29015 -0.25517 -0.880795 -0.468302 -0.0247026 -1.10881 -0.197889 -0.325653 -1.29155 0.224601 -0.944097 -1.36518 -0.921306 -0.898927 -0.80525 -1.16824 0.230869 -0.607857 -0.423548 -3.61971 -1.37759 0.4112 -0.165298 -0.75192 -0.866971 -1.54081 -1.73427 -1.14285 -1.17666 -1.30179 -0.259203 -0.937522 -0.816837 -1.06964 -0.00460907 -0.602066 0.214295 -0.786804 0.329197 -0.57594 -0.535799 -0.936097 -0.601866 -1.84995 -0.821994 -0.458408 0.105306 -0.302822 -1.01606 0.333807 -1.18432 -1.55583 -0.857773 0.179756 -0.946686 -0.842024 -0.805484 -0.316464 0.0887292 -1.22638 -0.185601 -0.803392 -1.4823 -0.00699639 -0.194193 -1.67192 -1.26814 -0.0968795 -0.750682 0.246919 -3.54225 -1.04601 -1.26651 -0.00536566 1.38935 0.763932 0.489769 -0.891723 2.48405 0.695087 0.632699 -1.12294 0.145756 -1.12445 -1.72218 0.0566875 -1.32916 -1.68504 -0.700766 1.38564 1.36068 2.00443 0.212085 -2.97406 -1.18024 -0.74669 -1.26165 1.35854 1.21122 0.501343 -0.491073 -0.194975 -2.07374 0.909794 0.130925 -0.663611 -0.130587 -0.625479 -0.84968 -0.792465 -1.44444 -0.903962 -0.18015 -0.81904 -0.938628 -1.774 -1.33877 -0.875287 -1.04656 -0.0652686 0.653622 -4.98936 0.298849 -0.686075 -0.0262162 -0.0164618 -2.68739 -0.876344 -0.85404 -0.795948 1.68373 -0.763647 -0.0266792 0.141039 1.22924 0.0286155 0.809094 -1.23406 -0.111465 -0.30309 -0.351584 -0.252728 0.659983 1.08161 0.41776 0.164112 0.855585 -1.17104 0.751463 -0.254635 0.755933 -0.11323 -2.32298 -5.31023 -1.02186 0.845451 0.9286 1.21083 -0.613539 0.129068 -0.206785 -1.05463 -0.683017 -0.927081 -2.17379 -0.171878 -6.34063 0.514356 0.428907 0.179108 -0.18793 -1.52845 -1.01685 0.169963 0.029358 0.00231062 0.0496485 -3.3103 0.855366 -1.2554 -1.2377 0.0393888 -2.1694 -0.0519377 0.198851 0.227982 0.859288 -0.0687773 -1.5873 0.94817 0.992165 -1.50003 -1.59595 0.271342 -0.383606 -0.464163 -6.64304 0.296239 0.816153 -1.78969 0.673391 -5.10205 0.872719 -0.187127 -0.331912 -0.282629 0.954016 0.711987 -0.0350399 -0.139587 1.69987 1.24417 0.631886 1.62654 -2.3682 -1.97484 0.306628 0.341162 -5.0775 0.648493 -0.379664 0.0660992 0.189247 -2.31598 -0.951993 -0.195912 0.258095 -0.995955 -1.41819 -1.47126 -0.86894 -1.34161 -0.346061 -0.800193 -1.61353 -0.145089 -1.64252 -0.505838 -0.306694 -1.76425 -0.911769 -1.36616 -0.874394 -0.493552 -0.504034 -1.19879 0.359935 -1.48902 -2.04236 0.274376 -1.57698 -0.835972 -1.41994 -1.12891 -1.33036 -1.60203 -1.4317 -0.412492 -0.0919967 0.0756996 0.206515 -0.140225 -1.12881 -0.621031 -0.12673 -0.0107381 -0.333339 -0.594502 -1.19386 -1.3279 -1.28241 -0.601796 -0.654977 0.644967 -3.08757 -0.507517 -0.733982 0.393962 0.410597 -0.204661 -1.40378 -1.81917 -0.501345 0.0765008 -0.154793 -0.140593 -0.822859 0.306461 -0.647957 -1.54854 -0.356587 -0.889007 0.300421 0.0379517 -0.548753 -1.2934 -0.988951 -0.651309 -1.1509 -1.75905 0.182464 -1.47736 0.566292 -0.487269 0.240258 -1.32727 -0.513086 -0.825318 -0.871684 0.0100484 -0.339721 0.23024 -0.74006 -0.409015 -1.10127 -0.766541 -1.27478 -0.190712 -0.547923 -1.43421 -1.21176 -0.902342 -1.11544 -0.46443 -0.760364 -3.78463 -0.940902 -1.12771 0.0884692 -2.4767 1.97102 -0.594147 -0.599783 1.70943 -1.31447 1.27448 -0.838792 0.37448 -0.351129 -1.40788 0.404602 -0.805418 1.78248 -2.00143 -0.341463 -0.824396 -3.29668 -0.0669603 -1.77472 -0.0609499 -0.953648 -0.643648 0.484528 1.06375 -0.293684 -0.0789461 -0.0826506 -1.19442 0.19885 0.590561 -3.10509 1.36339 -1.01762 -0.652386 0.199363 -0.308396 -0.170646 0.705214 -1.73529 0.464579 -2.63081 -1.33634 -1.67885 -0.231706 -2.33049 0.178382 -3.8562 -2.47066 -1.8216 1.2697 0.376916 -0.185537 0.175278 -0.237449 -1.97923 -2.9584 0.628254 -2.24928 -0.176099 -0.574235 -0.122148 -0.284495 -0.611185 2.1669 -0.10834 -1.11857 -0.309102 1.54451 -0.378197 0.396976 0.49408 -0.186663 -1.08054 0.204488 0.252717 0.637912 -0.986535 -1.96981 -5.40278 -0.0887745 0.00360303 -0.107346 1.47775 0.250897 -0.778586 -0.487649 0.483002 0.655746 0.192888 0.391575 -1.6571 -3.95757 0.584114 0.232048 -1.2214 1.30645 -0.616233 -1.11911 -0.051484 -0.562802 0.037441 -2.37229 -0.84328 -1.44606 1.11839 -0.502703 0.686214 0.0760813 -2.24018 0.711003 1.40396 0.23678 0.697199 1.1531 -0.40784 0.0472006 0.623672 0.0880978 1.33481 -1.19092 0.962219 -7.05953 -0.202488 -0.314908 0.341493 0.477279 0.419321 1.37459 -0.496118 0.342508 -1.06577 0.0995288 0.0645052 -0.506199 -1.81493 -0.613448 0.948036 0.354207 -1.17405 1.01458 0.384488 -1.60358 0.120739 -1.596 0.654317 -0.348169 0.312972 -0.893333 -2.16193 0.518658 0.470043 -0.232796 1.25375 1.34777 1.12261 -0.306501 -1.01661 0.215251 0.760856 -2.30085 0.754028 -1.45182 -1.57031 0.591845 1.71136 0.210313 -0.307095 0.320587 0.591344 -0.315985 2.63992 0.131606 -3.65208 -0.737843 0.944457 0.622473 -2.11353 -0.31476 2.57392 0.767682 -1.3539 -2.52376 -0.63738 -2.34111 0.234242 0.0222012 -1.58281 -0.426611 -0.798228 -0.920363 1.86489 0.784696 -0.817382 -0.0273743 -2.06929 -1.08614 -0.4747 -1.33331 1.68563 -4.2114 -2.92314 0.45577 0.10525 1.10254 0.115305 1.05455 -0.924733 -0.474388 0.695547 0.965254 -3.05519 0.592597 -0.530751 -0.606719 1.60089 -0.401775 -0.901734 -1.7404 0.581134 -2.86864 1.60396 1.24894 0.36209 -5.24197 -0.207495 0.895029 -0.173023 2.06947 0.810692 -1.81507 -0.46253 -3.15152 -3.80301 1.72053 -2.40481 0.536957 -3.61755 -0.54719 0.920085 0.0659939 -0.162224 -1.22967 0.385537 -1.58476 0.341654 0.0608318 0.205019 -1.12819 -1.49518 0.213618 -4.50688 -1.91356 -0.944134 0.487515 1.06115 0.614006 0.661775 -1.64936 1.55882 0.268466 -2.76249 -4.06521 -4.3659 -0.416312 -1.95873 0.507385 -0.528628 1.03595 -0.300795 0.565553 0.945709 0.684819 2.40485 -1.27938 0.512898 -1.26878 -0.119372 -0.0711552 -0.321412 0.12439 0.0842519 -0.857534 -5.25561 -2.57537 0.592541 -3.01217 0.596629 0.383356 -0.108581 0.089006 -0.216887 -0.466901 1.40674 0.672078 -0.620937 -0.253835 -0.0575542 -0.123733 0.654633 -1.71431 -0.140547 -3.71649 -2.47561 -1.01866 1.06211 0.792852 -2.01466 -0.770746 0.212645 -0.763969 1.07738 0.820407 0.187866 0.276719 -0.410262 1.69805 0.508363 -0.932176 0.275673 -0.619407 0.113229 1.23909 0.746964 0.792387 -1.14857 0.184089 -1.38924 -0.293606 -1.83398 0.0192021 -2.02967 -0.420147 -1.38269 -4.67146 0.408673 -1.61717 -1.57032 0.936269 -2.39792 0.044156 -1.45441 0.0500768 0.522968 -0.291812 0.000735908 -0.455676 0.419853 0.607266 0.253268 1.16562 -0.0313537 0.341669 -1.12276 0.00653054 -2.80316 -1.25153 0.0334678 -0.216475 0.829805 -0.135139 -0.1293 0.827845 -0.386133 1.50893 -1.23129 -0.836371 -0.409737 0.242764 -0.626749 0.375334 -1.67975 -0.164858 0.440554 0.102274 -1.5387 -1.00055 -2.79407 0.243958 0.21456 -0.97355 0.150801 -0.0254128 -1.91202 0.287228 -0.124085 -1.47463 0.483482 0.0659926 -1.1722 -0.517512 0.481952 -0.862919 -0.210301 1.37904 -0.33762 0.244359 0.0952668 -0.26061 -0.306434 0.514618 -0.160227 0.228277 -0.128859 -1.18043 0.807393 -0.704813 -1.19095 0.889891 0.29035 -0.592387 -1.24474 0.528005 -1.8782 -0.470781 -0.473464 -0.622162 0.997487 -0.387605 0.763061 0.660991 -0.0236043 0.792275 -0.399457 0.419719 -1.08252 -0.151897 -2.35313 -3.49674 -0.687623 -2.43706 0.0383135 -0.0222765 -0.0290418 -0.882387 0.211398 -0.297009 -6.35788 -0.448573 -1.38869 -1.38286 1.15044 -0.0153667 -0.389728 -0.209444 0.589667 0.314833 -1.09924 1.05372 0.448011 1.08319 -0.500261 0.844385 -3.85379 0.78622 -0.990837 -1.11194 -0.00701542 0.146468 0.131967 -0.821865 0.349569 0.439848 -0.124397 0.880976 0.0998774 -0.0804668 0.336703 0.280835 1.265 -7.59634 -0.370014 1.33261 -0.540454 -1.93459 -0.576917 -0.09054 -1.58077 -2.52991 0.263683 -1.13277 0.892997 0.377545 -0.0806927 -0.665279 -0.085248 0.51221 -0.00192059 -9.05435 0.711892 -3.6327 0.429283 -0.576206 -0.163984 0.0229871 0.890718 0.196275 0.383416 0.362308 -0.255793 -0.286826 0.533664 -0.89195 0.910642 -2.65944 0.537541 -0.372632 -3.91792 -0.99043 0.0811798 0.549268 -0.625358 -1.24821 -0.823715 -0.0568053 -0.0355102 1.17313 -0.278992 -0.394192 1.0411 0.537389 0.0210786 0.203217 1.37907 -0.557309 -0.427686 0.187977 -2.36137 0.0408374 -3.44548 0.914719 -1.47027 -0.0969064 0.129809 -0.406576 0.946653 -0.172111 -0.0094185 -1.15221 -1.61085 0.434715 -4.45418 -0.444691 1.33941 -1.23124 0.655624 0.455731 0.116566 0.722401 0.645352 -0.132121 0.369344 0.109571 -1.05879 -5.11353 -4.2359 0.694344 -1.02244 -5.84821 -0.0873958 0.628449 -1.01914 -0.0836422 0.595682 -0.447738 -1.52259 0.0682415 0.628692 -0.0201062 0.546037 0.0550305 0.269669 0.157285 -0.567954 -0.623161 0.0509369 -3.31724 -0.308956 0.226332 -0.925696 -2.45959 -0.0589075 -1.51063 0.271305 0.178238 -0.274671 0.835801 0.010555 0.443441 0.272028 0.681909 0.110135 -0.168921 -0.625195 0.71908 -1.19471 0.421614 -0.0937047 0.411893 -1.07442 0.468162 -0.57208 -0.0848913 -0.141128 0.278071 1.26044 -0.386519 0.402081 -2.12502 
