-0.271428 -1.17338 -0.617633 -0.149618 1.38052 -2.37342 0.149409 0.924515 1.9 -2.50414 0.379436 -0.883571 -1.82615 1.03145 -2.70963 -3.63262 0.706677 14.98 0.859802 1.76881 0.120892 0.549501 -2.56336 2.62753 -1.79472 1.37162 1.93782 -0.631052 1.71907 -1.75098 -0.00515059 -0.18085 0.218387 -0.0315601 0.227693 -1.00321 0.344713 0.473692 -0.282164 -0.6627 -0.229074 -0.635195 -0.143284 -0.576474 0.050643 0.273812 -0.173579 -0.355252 -0.201449 -1.4639 -2.28855 0.42548 0.13512 -0.570379 0.946361 -0.189967 -0.368808 -1.81564 3.16536 -0.227629 1.25849 0.485805 0.948532 0.602583 4.48677 0.234968 -8.91655 -4.59603 4.89585 -0.438779 1.74478 0.999257 0.575839 1.59559 3.47897 0.656019 -7.51279 -3.3236 3.70452 0.0711357 1.76725 -0.185527 0.224973 -0.0669656 -1.23244 -0.0321438 0.324747 -1.7152 2.87957 -0.310047 1.2245 -0.0800467 0.31098 -0.110435 0.0391083 0.10098 0.295232 -0.23638 0.605461 0.267641 0.526862 1.90251 0.213162 -0.826556 -0.768534 -1.00094 -0.37167 0.568071 0.850145 0.676095 0.148312 0.252101 -0.27456 0.194185 -0.463087 -0.890488 -0.636305 -0.394066 1.04137 -0.134933 0.139699 -0.360988 -0.64721 -0.773342 -0.450514 0.787164 -0.415846 0.529898 -1.15148 -0.633173 -1.00044 -0.401024 -0.881695 0.35258 0.60277 0.5483 -0.943075 0.463226 0.811707 0.170351 0.515473 0.652404 -0.0398063 -0.20875 0.354407 0.062836 -0.224726 0.0867628 0.0248489 0.810366 -0.604793 -0.210366 -0.73274 -0.500721 -1.09712 -1.12469 -0.512006 0.213567 0.367959 -0.13282 -0.710627 -0.321088 0.102862 -1.24718 0.368446 -0.789013 0.525971 0.0962412 -0.623798 0.335797 0.14624 0.253136 -0.385172 0.289536 -0.603577 -0.981884 -0.505505 -0.544231 -0.751627 0.179296 -0.903698 -0.250291 0.278397 -0.739749 0.551176 -0.756534 -1.30414 -0.902034 0.269281 -1.25473 0.626807 -0.110085 0.591916 0.510782 0.0799702 -0.192205 -1.1505 -1.34602 -0.574166 0.248332 -0.682713 -0.714685 0.428137 -0.783367 1.89138 -1.93073 3.03343 1.0666 1.49765 0.920956 0.684024 -1.34258 -0.0545208 -0.898055 3.35205 0.821831 -2.00253 4.36128 -2.91888 1.3795 0.962088 -1.19499 -0.585229 -1.21814 1.62043 0.0306492 -3.35702 4.46491 -2.30273 -3.55845 -0.17996 -0.962007 0.283909 -1.01871 0.985302 -1.85724 1.25712 -0.983472 0.608803 -0.981189 -0.948151 1.15895 0.387787 -0.854955 -0.301311 -1.37653 -0.42758 -0.689032 0.0928311 -0.936225 -0.0692139 -0.302757 -0.021489 -2.0108 -2.33475 0.0536137 -0.734444 -0.00380425 -0.722796 0.379934 0.418776 -0.963017 -0.826297 -0.691807 -1.04566 -0.232211 -0.379621 -0.576894 -0.0216314 -1.85621 -4.61043 1.57332 -1.23317 -0.41027 -1.21715 1.63536 -0.205482 -1.38325 -0.2421 -0.339254 0.199046 0.075392 -3.40741 0.270549 -1.70905 0.967593 0.277002 -1.00627 8.06906 3.59014 -6.00453 -0.543026 0.922072 0.196188 0.168455 0.260394 -0.460109 -0.759754 1.10568 -0.138773 -1.62819 -0.478036 -0.506636 -0.247749 -0.0810689 -1.34849 -0.581589 -1.04832 1.71341 -1.5347 -0.566818 -1.75923 -0.795321 -0.482018 -0.203381 0.036961 -1.04251 -0.644715 0.260169 0.730503 -0.204705 -0.621754 -0.602927 -0.0101768 0.359771 0.787603 0.362199 0.120458 0.0538404 -4.65202 0.0799635 -3.50931 0.700634 -0.147347 0.0791422 1.61385 -1.06828 1.67439 -2.13345 5.31843 -1.78485 1.1218 3.28508 -2.86309 0.437267 -1.71111 0.388079 0.477626 0.482974 0.659239 0.694796 -0.527572 -0.159307 0.371733 -0.371839 -0.0356793 -0.0485159 -0.261142 -0.731516 -0.289127 -1.82346 0.217603 -0.937097 0.435381 -0.575258 0.688194 -1.85116 -0.220668 -1.22992 -2.91753 -1.56956 -3.84804 -1.18224 2.03393 2.88836 2.47838 -0.260389 0.241987 -0.172328 -2.97197 1.03638 -3.84816 -0.0977651 3.16838 5.99438 3.18396 0.66185 0.279834 -1.42804 0.773623 -1.37727 1.36917 1.32107 2.6963 -0.644593 2.25306 -1.2231 -0.414177 -1.33075 -0.00854819 -1.88148 0.265572 -0.84837 0.550773 -2.26784 -0.293348 -1.93476 -3.73995 -2.75269 0.625746 3.04702 0.807252 -1.07084 -0.756552 -0.557588 -0.293751 0.33697 -0.748705 1.42114 0.783777 -1.18259 -6.36174 -0.793044 -1.22168 0.862149 -3.36525 -0.513794 0.476638 -0.224345 0.288396 -1.33051 0.690088 -0.730239 1.0627 1.0161 -3.83137 0.617343 -1.0127 -0.22361 -1.50809 2.1367 -3.11255 -0.0778131 2.3077 -0.568226 1.04327 -0.566435 0.592786 -0.542822 -0.814692 -0.296376 -0.914552 0.208276 -0.289173 0.0775301 -0.859003 -0.526683 0.318111 -0.259414 1.0285 0.354564 -2.01892 -0.21394 -0.197574 -0.971652 -0.697566 -0.684141 0.699179 -0.798199 -2.48065 -0.227561 -1.23161 -3.26066 -1.14518 -2.3729 0.518294 3.46117 0.00109911 0.221358 -0.662303 -0.0494836 -0.823617 -5.43793 -0.957193 2.19761 1.87709 -2.85201 0.469894 -1.0013 0.43448 -1.31057 -0.44583 1.56944 -0.154016 4.71529 1.41626 2.33003 -0.335069 -0.58128 -0.377611 -1.02419 0.732003 -1.27749 1.00466 -0.191992 0.761484 -0.0222426 -0.408238 -1.72163 -1.42124 0.493233 -0.62714 0.0319124 -0.455156 0.649998 -1.66868 -0.767238 0.879489 -2.32185 -0.598529 0.203014 0.610976 -1.34232 3.16113 0.248502 -4.78195 -0.526098 -1.62526 5.71769 -0.986705 0.953132 0.310426 -0.274539 0.258195 -0.901675 -1.82609 -2.56277 0.0160292 -1.31058 1.16802 0.163426 0.30911 -0.190099 -0.203734 0.134476 -0.585257 1.14448 -3.41837 -0.484628 -0.132549 -0.232514 -0.398686 -0.128339 -0.639384 0.325463 -0.376274 0.00430141 0.446929 0.140781 -0.432492 -0.710422 -1.05249 -0.538636 -0.677139 0.674139 0.334514 -0.308756 -1.18845 -0.436447 -1.16397 -0.248058 -0.341562 -0.802475 -0.0413601 -1.19981 -0.386025 0.339383 -0.291902 -0.522432 0.634685 0.118511 0.536305 0.315376 -0.505562 -0.656859 -1.26313 0.742061 -0.466924 0.681345 0.557406 -0.321065 -0.407404 0.0896134 -0.0604392 0.467077 -0.584351 -1.17922 -0.417028 0.441793 -0.390111 -0.421685 -0.210379 0.0817398 -0.286799 -0.0106903 0.4539 -0.478184 -0.350713 -1.16443 -0.675673 -1.14303 -1.04695 0.00653674 -0.776979 0.298465 -2.21443 2.95551 0.224014 3.13655 5.93254 2.08814 -1.22216 0.0655502 -1.04961 -2.71693 1.53677 -3.10078 1.02251 1.28837 5.33677 2.69437 1.99579 0.359165 0.183153 -1.31102 2.05936 -2.44304 -6.79502 -0.777664 2.70489 0.664982 0.37072 0.447089 -0.0252448 -0.821629 2.07619 0.443576 -1.31913 -0.673452 -0.23805 0.544691 -0.330031 0.0901065 -1.6932 0.0680714 0.521214 0.264673 0.082321 0.0795078 -0.474045 -0.199773 -0.76175 -1.89723 0.406047 -0.772198 -0.0423375 -0.643604 0.532426 -1.26912 0.0631164 -0.027401 -0.340186 -0.264583 -0.0174858 0.593478 -0.141952 -0.364713 -0.43431 0.146283 -0.158008 -0.887838 0.202368 -1.244 0.352012 0.128755 -1.03819 0.238173 -0.227554 -3.47911 -0.0378744 1.2485 0.146713 1.35725 -1.17652 0.90645 -1.423 -0.638183 -0.432499 0.178096 0.056685 -0.798953 0.57528 -0.968399 -2.24164 0.559451 5.72777 -0.453056 -1.08679 0.866543 -0.305793 0.744092 0.271725 0.458316 0.314286 -0.554771 -0.489159 1.27703 0.226738 -0.0387104 1.01611 -0.34131 0.608268 0.071591 0.141735 -0.745918 2.01003 0.294355 -2.42156 -1.24233 8.80964 -0.731788 -1.83397 0.200761 -0.185904 -0.148716 0.0969343 -0.0178403 -0.935934 -0.84572 -8.06216 0.223495 0.656046 0.39727 0.50979 2.52649 -0.0366958 -1.54512 0.0884678 -0.751915 2.24489 -0.62484 1.15716 0.404837 -0.0273142 -0.60984 0.660207 0.16155 -0.649775 0.307268 0.326078 0.344736 0.582644 -0.445481 -0.641314 0.360121 -0.770076 -0.733317 -1.46247 -0.153731 0.993997 -0.703766 -1.15634 -0.604417 0.683936 -0.0498485 0.838364 -1.17804 -1.22861 -2.41696 -0.268526 -2.738 1.82056 0.32658 -0.957717 -0.366293 -0.122105 -0.441436 -0.935945 0.292308 -0.421663 -0.436452 -1.00989 -1.41936 -0.430427 0.191279 0.615313 -1.25609 1.58932 -5.02039 -0.783153 -0.705565 -0.243568 -0.945537 0.530018 -0.433831 -1.33604 -1.15139 0.108501 -0.447755 -0.159593 0.356159 0.190278 -0.545882 -0.358048 -0.963197 0.0293261 0.167101 -1.43774 -0.603034 -0.514132 -0.0989372 -1.09507 0.0427457 -1.89582 -0.242418 -0.630015 -0.265112 -0.698465 -2.66045 1.07871 -1.87417 -1.73354 0.226761 -0.357733 0.619878 -1.41888 0.0359623 -0.0899502 -2.80767 -1.22602 -2.59017 -2.63259 2.10099 2.61656 2.59994 1.0657 0.0714429 -0.453024 -0.664799 -0.572383 0.825975 -4.05598 2.18965 8.69466 2.83917 3.23082 -0.0421923 -1.52938 -0.471294 0.321125 0.459354 -1.33453 1.577 0.278897 2.74572 -0.79617 -2.8428 -1.13514 -1.40649 -0.127074 -0.774492 -1.29372 -1.59354 0.421719 -1.13942 0.678545 -0.218992 0.174893 -0.69987 -1.41888 -5.6739 -0.653042 -2.43099 1.31148 2.68056 1.52694 0.577006 -0.147439 -1.48753 -1.17874 -1.02291 -1.12637 0.657752 1.61577 6.47474 0.990176 2.29207 -0.155267 -0.493145 -0.707909 1.26249 0.434812 -0.929039 1.40298 -0.658707 0.343581 -0.415043 0.262551 -0.0466295 0.171985 -0.572045 0.0696811 -0.212958 0.0764398 -1.71517 -0.165398 -0.361205 -2.38607 -0.0119755 -0.993153 -1.29873 -1.26232 -0.185412 -0.655248 -1.18416 -0.410333 1.47036 -0.647181 1.09467 -0.460522 -0.42883 -0.718688 -0.203702 -1.34556 -3.26903 0.314587 -0.189209 -0.101411 1.30501 1.19695 -0.113187 0.93832 -1.40768 -0.805805 0.187395 -0.0616854 0.257833 0.0312553 0.261352 0.0653304 0.735315 1.14109 -1.12508 2.49165 1.05987 0.360715 -0.254532 -0.247716 -0.38247 -1.20474 -0.342912 -1.11246 0.820806 -0.372194 0.679982 -1.01767 -1.43797 0.136323 -1.68954 0.353986 -0.210847 -0.189818 -0.595489 0.37737 -0.379239 -0.438721 0.831654 0.534984 -0.761725 -0.649633 -1.05208 0.689761 0.639392 0.653354 -0.830258 -0.393618 0.680904 0.0478527 0.410938 -0.0290323 -0.390828 -0.793363 -4.47578 0.65549 2.72994 -0.577367 -0.73905 0.0270401 -0.303112 -0.515873 0.814274 -0.789693 1.41368 -2.08025 0.621784 -1.6482 0.46143 -1.82097 1.26657 0.172222 -0.399314 -0.00331016 -0.373647 -0.112003 0.608679 -0.669079 0.484836 0.182803 -0.432236 0.34122 -0.284692 0.615158 0.178849 0.0258619 0.142007 0.168477 -0.170431 -0.408968 -0.0322493 -0.858322 0.482706 -0.900295 -1.3241 -2.58961 0.312958 1.87662 0.805582 -0.962236 -0.138733 -0.206534 0.254333 -1.64683 0.0891109 1.65678 -1.48544 -1.86686 -0.230317 0.802493 0.293322 0.11753 0.650172 -1.20938 -1.75245 0.934769 -0.871246 -4.70228 -1.4004 0.6781 0.727623 -1.23939 -0.867832 -0.102518 -1.78477 0.799891 7.15153 -3.80109 -1.13195 -0.273736 -1.0952 -0.891212 0.00765975 -0.573417 -0.831094 2.40585 -1.32521 2.87911 -0.626427 1.95428 0.258998 0.0201511 -1.55657 -0.0912963 -2.29382 -3.56554 -3.91242 -2.84721 0.927119 2.93042 1.91894 0.785434 -2.3827 -0.91919 -3.08045 -3.21251 -8.87734 -3.03569 3.50739 2.98435 1.81475 0.428526 0.313487 -0.812402 0.0017494 2.25719 -1.14642 0.762694 1.97333 1.43269 -0.76397 -0.433995 -0.517443 -0.446343 -1.80637 0.539801 -2.03339 0.229237 0.703823 0.111673 -1.36662 0.312085 -1.52396 -3.40993 -0.00555875 -0.431093 0.193539 -1.36261 -0.128632 0.869932 0.263844 -1.11381 -0.181761 -0.353904 0.826207 -0.685353 -3.03797 -2.40506 -1.12626 1.32023 -0.321229 0.520266 0.39069 -0.764961 3.4986 -0.156072 -2.74641 -1.02398 -2.93351 -5.06717 -0.117264 1.13513 0.522357 -1.16905 3.03709 7.27304 2.58383 2.81458 -0.275464 0.584961 -0.328994 -1.60538 -0.100022 -0.718949 1.50385 0.785152 3.07891 0.358956 0.208552 -0.391373 0.0297249 -1.61834 -0.256979 -1.86654 -2.72382 0.191073 0.463485 0.471343 -0.654743 0.315204 -1.43034 -2.65993 0.551881 4.15216 -0.318088 -0.584697 1.24203 -1.17896 1.43612 -0.703377 0.26083 -3.01194 1.0783 -1.9732 -0.127548 0.248221 0.106337 0.500755 -0.225868 -0.297524 2.76373 3.11001 -2.6385 0.418856 -1.61959 0.04285 0.540721 0.03601 -0.533687 0.203667 -1.11753 -0.0943327 -0.515747 0.44608 0.40511 0.0549156 -0.891901 -0.0509923 0.293334 -0.149555 0.138855 0.386337 -0.805474 -0.0468191 0.695268 -1.2515 -0.338371 -0.843594 0.194904 -0.815309 0.436737 -1.61639 -1.82652 -2.32839 -0.872295 -0.373398 1.19047 -1.62579 -0.787468 0.627319 -2.23437 -5.28572 0.335662 0.72602 0.476406 -1.14293 1.95404 1.0063 -1.10809 1.96968 -1.86318 -1.91683 -0.700429 1.55527 3.27223 -1.92613 1.54689 0.439827 1.47372 -0.791808 0.721128 -2.92329 -0.347106 1.31494 -0.518662 0.35202 -0.0959497 -1.17103 -0.617505 -0.607591 -0.126445 0.0508891 0.0618229 -0.671713 -0.714926 -1.48128 -2.52471 -0.203046 0.540823 0.981964 -1.96201 0.882853 -2.20653 0.354263 -1.36429 -0.117101 -0.369858 -1.53998 0.390093 -0.414983 3.55527 -0.624822 5.94976 -0.210915 0.803107 -0.144875 0.1826 0.23257 -0.795497 -0.811864 -2.01233 -0.47556 -4.01665 0.268013 1.46506 0.400992 0.160351 0.453944 -2.06887 -0.603985 2.54065 -0.99346 6.17123 -2.77974 5.61346 -1.15221 1.78958 -0.574951 -0.240809 0.39108 -0.0457007 0.622141 -0.452643 -0.343122 0.729847 1.4301 -1.22829 -0.609929 -0.134211 -1.04041 -0.437998 -0.769377 0.30541 0.292683 1.57829 -3.07737 -0.705187 0.418142 -0.340338 -1.1376 -1.66697 -1.21746 0.283646 0.129712 -2.49587 4.69046 -1.15803 0.977768 0.219695 -0.273749 0.038192 -0.160541 0.24443 -1.54847 -0.482604 -2.98745 5.74894 -5.33582 0.058316 -0.0791241 -0.189698 -0.400852 0.0125312 0.746434 -1.6451 3.02625 -1.51122 1.29504 -0.147787 -0.238354 0.172245 1.02224 0.480975 0.0872167 0.681428 -1.85624 -0.889123 0.0156661 -0.254166 -0.8524 -0.892595 -1.21962 0.487074 -0.0255777 -0.541319 -0.787372 -1.13694 0.102918 -1.0613 2.25942 -0.139384 -1.40728 -0.291582 -0.802913 -0.993095 1.61651 0.56987 -0.775702 -0.0878805 -0.980964 -1.25916 0.0967763 -2.5827 -0.849574 -0.835376 -1.33315 0.456786 0.946436 -0.641949 -2.02469 -0.972274 -1.20902 -1.67402 2.67845 -1.70413 -0.454944 0.904678 -0.805081 0.595332 -0.773791 0.388736 1.38623 0.0256769 -0.315629 -0.311037 -1.15973 0.302478 -0.128305 -0.161705 -0.605708 -0.28297 -0.645086 -0.229069 1.08422 0.860353 -1.95458 0.0312958 0.814785 -0.118684 -0.649237 1.28304 -1.48897 -0.973077 2.84892 -0.655634 1.89774 -0.844615 1.05425 -0.19078 0.270914 0.199442 1.47826 -1.95736 2.17406 -2.42123 -2.09585 2.35174 -4.37769 0.00440431 -0.504435 0.154641 -0.954676 3.0191 -5.18276 -2.1671 13.5304 2.14743 -5.74266 -0.407638 0.239388 -0.927364 -0.230677 1.1145 -2.27359 -0.83743 4.72015 0.88743 -2.87536 -0.617464 -1.00411 -1.66955 0.0700247 -0.935043 -0.897741 0.590587 -0.548626 1.17288 4.02228 -0.67699 0.10738 0.855698 -0.0933669 -0.239791 0.344196 1.97579 0.50896 0.667932 -1.70922 -0.545924 -0.964913 -0.448388 0.913637 0.74115 -0.349957 -0.717599 0.333881 -5.59482 -0.551796 -2.20024 -0.0149729 -0.455595 0.168836 0.392391 0.172104 1.79131 0.724699 -2.44897 -1.66888 2.99431 4.05216 1.09824 0.184962 -0.659628 -0.0337309 -0.126293 0.414358 -0.4312 -0.366386 0.949109 -1.39045 0.124199 -0.723736 1.99544 0.3325 1.24825 2.72412 0.628231 0.146028 0.579141 -2.30651 -0.19261 -1.47806 0.909275 1.71689 -1.47558 6.27004 -1.77703 1.74 -1.32677 2.49756 0.147568 0.861026 0.437202 -1.03611 -1.89702 -2.18587 -0.435413 -3.43083 0.619833 3.32156 0.692802 0.248114 0.791326 -1.97618 -2.12763 0.49653 0.470428 -0.920139 -0.800603 4.74586 0.0307341 -0.234916 -0.255496 0.0900959 -0.130848 -0.00764772 0.465535 -0.685848 0.31945 0.288017 0.139375 -1.20232 -0.568195 -0.418372 0.0564983 -0.0654481 -0.0998358 -0.687999 0.103647 -0.8261 -0.437878 -0.531541 0.0377861 -0.427487 -0.377386 -1.55517 0.107657 -1.04564 -0.933159 -1.42 -0.0452493 -0.339081 -1.30557 0.32551 -0.62922 -0.0520849 0.544045 -0.786185 -0.665687 -0.447117 -0.0786555 -0.301784 -0.0556169 -0.761116 0.124913 -0.215621 -0.669649 -0.560994 -0.890676 0.283134 -0.39838 -0.842322 -0.164227 -1.35649 -1.34807 0.40422 -1.45416 -1.27038 -0.971902 -0.958786 0.529632 -1.38426 -0.0242392 -0.340201 -0.792496 0.823367 -1.01119 -1.21748 4.46861 -3.37498 -0.887145 0.670709 -0.626849 0.345556 -1.15294 -0.705457 -0.911524 3.97242 -0.422208 0.843741 -1.54712 2.13096 -1.44638 0.211335 0.605281 -0.507466 -0.952914 -0.914211 -0.455564 -1.42157 2.02344 -3.63877 -0.254946 -1.1992 0.214621 -1.02482 -1.70559 2.51446 -0.824043 1.47818 0.247254 1.49695 0.195335 -0.841528 -0.362359 0.410084 0.162613 0.438913 0.797974 -0.404625 0.13339 -0.276948 -0.769797 -0.464007 -1.22494 -0.129548 0.269609 1.45949 0.38055 1.8553 3.2924 0.988077 -0.270776 -0.354943 -0.929715 -1.26031 0.163073 -0.226782 -4.96042 -1.32447 2.42902 2.70093 0.871675 0.167762 -0.706111 -0.888922 1.6319 0.121668 -3.67286 0.364252 -6.58595 0.424276 -1.76206 0.282784 0.00700647 0.680166 0.0257265 -2.01764 -0.0613506 -1.99565 1.23338 -0.835995 -0.45563 -0.334554 1.07064 -0.0781137 0.201522 -0.187272 1.47921 0.280423 0.917424 0.77531 0.505054 -0.443413 -0.415015 -0.153906 0.450656 0.309397 0.406023 -0.128905 0.543342 -0.146581 0.51875 -0.76048 -0.0465762 0.0746375 0.533862 1.78099 0.259222 2.61833 -1.21692 2.70942 -0.404923 0.0282286 -0.461678 0.491804 0.590465 -1.9735 -0.410517 -2.31324 -0.534418 -1.94788 0.757356 -1.65974 0.253072 -0.659619 -2.82997 0.216373 -3.1226 1.45616 0.827193 0.457235 -0.248684 2.21821 0.257357 -0.400697 3.43495 0.00225041 -1.0878 -0.37398 0.284956 0.731553 0.315904 0.37824 -0.185036 -0.901841 -0.0559332 -0.231849 -1.77409 -0.00897813 -0.692588 -0.0486705 0.535212 -0.122063 -0.817061 -0.212858 0.118076 -0.163129 -0.679139 -2.64416 -1.24881 -3.07381 0.0823294 0.0584611 -1.66998 -0.455262 -0.799656 0.0764654 -1.67515 -2.19774 -1.01786 -3.17779 -3.37638 1.81794 -2.81346 0.316108 -1.37669 -0.169398 -1.52252 1.08908 -0.375015 2.83692 10.7986 1.43461 8.56949 0.611395 0.143385 0.384031 -1.89573 1.52721 -2.81052 2.99511 3.41977 3.02927 0.958304 1.40942 -2.07692 -3.5512 0.0282635 -1.28063 0.0272182 -1.00353 0.14527 -0.297933 0.933303 0.0849543 -0.00670419 0.40157 0.843232 0.898727 -0.0331 -0.73696 -0.337237 1.66685 -0.290432 -1.54381 -0.73767 0.942761 0.892348 0.179602 -1.82644 1.2071 -1.68065 -1.37872 -1.45356 -3.99508 -0.373069 0.0689283 0.712618 -0.45016 0.0755488 -1.58084 -1.74041 -1.29078 7.24753 -3.34474 -0.503523 -1.19535 -0.15061 0.279571 -0.0264412 0.125979 -0.0328562 -0.829728 -0.878414 -0.0739958 0.183216 0.403497 -1.46972 0.341617 -0.681618 -1.15757 -0.30375 0.418437 -1.88108 1.14959 -0.130315 0.614787 -0.32102 -0.0987755 -0.286158 -0.00125721 -0.547446 0.0330751 -1.42451 -2.43299 5.79853 -0.703552 1.65833 0.264127 1.49076 -1.04795 -0.474007 -0.884345 -0.406056 6.37723 -11.4854 0.161735 -1.40361 -0.124012 0.187216 0.745784 -1.30894 -0.821077 0.733597 -1.71202 3.49028 -2.20949 1.60308 -0.182375 -0.129353 -0.0432606 -0.438988 0.420475 0.830648 0.0369147 0.697999 0.894539 -0.363916 -1.22501 0.0914008 -0.522446 0.364059 -0.000621154 0.383038 -0.0679729 -1.122 0.200506 0.224884 -0.123964 0.0698416 -0.766419 -1.87809 2.89296 -2.826 -1.07304 0.761505 -2.09794 -0.616079 -0.169875 1.20816 -0.524256 -2.80213 -1.75614 -2.17747 -1.87501 -0.530667 0.190881 -0.352713 0.525255 1.63808 2.6614 1.12898 5.64546 1.38985 1.74215 0.0453189 -0.588668 1.24294 -0.780118 2.25633 -1.08037 2.28438 2.07726 1.21159 0.396544 0.0721448 0.306868 -0.778639 -0.624441 -1.84492 -0.057859 -0.921792 -0.718299 -0.385185 -0.0118923 -0.671071 0.251508 0.163467 -0.337903 -0.138846 0.0290523 -1.95712 -2.42344 -1.57239 -2.3827 -3.12679 -0.701964 0.651316 0.15572 0.444155 0.776867 -1.38011 -1.83582 -0.304285 -2.85667 0.52523 0.452878 -0.498364 0.144752 -0.156173 1.08592 -1.2543 1.38813 15.1386 2.37132 5.69494 0.960814 -0.135987 -0.446655 -0.819224 1.79467 -2.31165 1.92818 1.93866 2.3943 0.836956 0.324501 -1.89715 -0.0504199 -0.600621 -2.53855 0.744057 -0.175781 -0.535355 1.30949 0.700467 -2.20142 -0.167386 -1.52699 -0.447132 0.383114 -0.21205 1.2232 -0.722417 4.88573 -0.334905 -1.08378 -0.447373 1.46234 0.625735 -1.30454 -0.223662 0.116415 -1.0695 -4.40697 -0.352331 -1.95052 -0.790169 2.32508 0.532452 0.571248 -2.0384 -0.69453 4.66816 -1.48844 -2.22074 0.379136 -0.84177 2.91181 0.699268 0.643992 0.339267 0.471456 -0.320704 -0.991859 0.336589 0.308588 0.455135 -0.349 -0.946644 -0.43971 -1.06199 -1.71759 0.283215 -1.79479 -1.02464 5.08044 -1.71415 -0.694727 -0.0362298 -0.75739 0.363371 0.333488 -0.195117 -0.640183 -2.80273 -0.156571 -2.62549 -0.935776 2.20441 0.657553 -0.158446 -0.438789 -0.251978 -0.193437 -4.56516 -0.701066 -3.87283 -1.22491 4.84267 0.392107 1.88943 -0.0394988 0.121529 -1.5263 -0.171811 1.52153 -1.65651 -0.447715 1.51462 0.598164 -0.0259363 0.508971 -0.854039 -0.115001 -0.0253248 0.106312 0.151023 0.24921 0.484 -0.195371 0.300124 -0.244432 0.897546 -0.527742 -0.724723 0.959245 0.268265 0.449112 0.365381 0.208789 -0.364692 -0.266391 0.133582 1.08328 -0.65973 3.11894 -0.815034 -0.895774 -0.090296 -1.28278 -0.158123 0.784176 0.998294 -1.08301 -0.572389 1.5648 -0.671785 -3.5862 0.122542 0.587178 -0.136658 -0.220436 -1.77264 -0.246084 -1.97852 3.39476 2.71834 0.83258 -1.09003 -1.38179 0.0409665 -0.857441 -0.833819 -0.0716826 0.0350015 -0.441002 0.700732 -0.742718 -0.210759 -0.486444 0.491317 -0.548061 0.521422 -0.41379 -0.972609 -0.0197233 -1.04369 0.567039 -0.44309 0.100648 0.26326 -0.00133259 0.329703 0.047507 -0.720981 -1.4622 0.466013 -0.0748189 -2.26796 -0.0369076 -0.404811 -0.156946 0.593736 0.599269 -0.609279 -0.594288 2.91256 -1.1881 0.0872989 0.526894 -1.89838 0.586483 -0.861109 0.088192 -0.466301 0.782739 -2.18066 -0.82116 0.247296 -0.737913 -1.55665 -0.966855 1.04748 0.274724 -1.15665 -0.522736 -0.486752 -1.48414 1.41671 6.17912 -1.0838 -2.20516 -0.874167 -0.579029 1.53664 0.0317518 0.205172 1.94644 -0.126737 0.86845 -1.29411 -0.210927 0.130377 0.540566 -0.663849 2.83871 0.00983474 8.5583 0.126045 -7.1868 1.62817 -3.58002 -0.238248 -0.31127 0.412672 -1.41501 -0.321251 -8.98495 -0.899435 5.07365 -0.482313 -0.463703 -0.0143046 2.30377 -0.332255 1.32206 -0.763998 0.309576 -1.12494 2.80279 1.36398 0.874922 0.8525 -0.105963 -0.566223 0.458339 0.64803 -0.47955 0.123425 3.24201 0.46826 0.0377352 -0.824647 0.795293 0.625709 -1.02837 -0.609235 0.21494 -0.197851 -1.7772 -0.870771 0.489685 -0.574191 -1.12249 0.562866 0.560954 -0.842283 0.0926667 -4.24097 -0.139236 -2.10707 -0.438694 -0.502424 1.34519 1.04579 -0.40261 0.650809 -0.348038 -0.844859 -1.42632 -1.56197 -0.589815 0.369806 -0.110567 0.65794 -0.376695 -1.23522 1.26844 -1.01802 1.57541 0.602836 -0.361114 1.57249 -0.507236 -1.12393 -0.249607 0.324826 -1.71873 -0.717413 0.177594 -0.00442544 0.939168 0.323253 -0.510467 -0.291302 -0.622635 -0.17723 0.229616 0.348443 1.86166 0.744235 1.65372 0.351693 0.789927 0.12911 -0.799831 1.42588 0.518518 0.96747 1.89982 -0.736296 1.78755 -1.17132 1.05924 0.0869482 0.336695 0.30166 1.38763 0.812075 -1.18054 0.379366 -8.1758 0.331477 -1.25031 0.227639 0.68281 -0.796977 2.00212 -2.39594 1.65206 -4.88221 6.01508 -1.12658 2.4948 0.102995 0.740501 -0.94136 0.236303 0.42523 1.08817 -0.142431 2.29569 0.460477 1.25567 -0.332296 0.724182 0.570559 -0.1699 0.579844 -0.980126 1.17645 -0.554104 -1.13135 0.333983 0.0177941 -0.673587 0.59245 0.392752 0.455993 -0.899902 -5.23139 -0.217651 -5.34465 0.1766 -3.37169 0.149419 -0.229854 0.255354 3.33704 -1.34679 9.1086 -1.89559 2.78016 -0.35607 4.34435 0.00771067 2.39296 1.52174 -1.70933 0.783397 3.14908 1.72931 3.58046 0.213114 4.89988 1.46974 -1.42536 0.127917 -0.866799 0.29602 -0.422694 1.13072 -0.319047 0.0282131 1.63379 -0.455274 -1.07733 -1.13604 1.20923 -1.04764 -1.43191 -0.995861 0.588017 -0.672522 0.593673 -0.740355 -0.650049 -0.889828 -1.74988 0.167913 -1.41306 -0.555623 -1.10758 -1.0213 1.43994 -1.8412 0.0898483 -0.45585 0.375914 -0.970915 -2.53101 -3.45594 -1.69584 0.974486 1.52309 6.44599 0.00831081 1.89731 0.328292 0.583046 0.75289 -1.69795 1.78459 -0.354681 2.98715 -4.93305 0.697341 -1.45747 -0.132962 -0.195746 0.0372187 0.43471 0.374373 -0.333757 0.506883 -0.664265 -1.60401 -0.713504 -1.75596 -1.20112 -0.889862 0.499266 -1.49591 0.641908 1.34951 0.557898 -0.0717317 -0.243665 -0.770466 -1.81357 -1.37856 -0.476576 -0.21983 -1.8076 3.93102 0.943163 -1.17668 0.214435 -1.10417 6.43539 -2.95492 -1.47389 -5.05804 -0.876631 3.11484 0.895439 1.00412 0.568862 -0.479524 -1.21201 -1.31253 -0.933695 -0.127766 -0.0789077 0.946253 0.596032 0.759588 0.157632 0.367203 -0.714896 -0.00335685 0.319076 -1.35766 0.180923 0.193854 0.49305 0.250201 -0.247164 -0.288949 -1.58339 0.585459 -1.05685 -0.242106 -0.00835264 -10.5796 0.220822 0.0730152 0.319181 0.41244 -1.263 -0.690626 0.830085 0.306056 -0.22581 0.946262 0.377273 -0.16919 0.547728 0.367234 -1.63845 0.287729 -0.147138 -0.401237 -0.42092 -0.274053 -0.178073 0.380939 0.576709 0.313623 -0.0990077 -7.82096 0.0326258 -0.34813 0.287057 -0.50494 0.0533889 -0.287312 -0.484963 -0.220776 0.203456 -1.08063 0.655887 -0.659955 0.169055 -3.42837 0.468841 0.134327 0.604789 -0.821252 0.691687 -0.823691 1.56419 2.51048 0.807347 0.810461 -8.68444 0.559593 -1.67799 0.683058 -2.68997 0.957014 0.481465 -0.347012 -3.85026 -0.35291 -3.82942 1.04878 -0.469581 1.30734 0.665918 0.162832 0.0706877 -5.42292 0.0819554 -0.10455 -0.149041 -3.82904 0.0168883 0.570345 0.996475 0.148492 -5.91632 -0.144696 -0.099607 -1.70596 -1.67698 -0.466769 -0.957322 1.56538 -0.230226 1.14974 -0.382479 1.74447 -0.442318 0.106185 0.120591 0.283317 -2.42844 0.643028 -0.926384 -0.158484 -2.60242 -5.24374 -0.777982 0.589583 -0.557657 -7.63706 0.0433366 -0.193305 -0.0706773 3.22845 0.109745 0.0188033 -0.427769 -6.3785 0.149221 -0.67566 0.380067 -0.0807682 0.644431 -0.664486 -0.454874 0.070526 -5.25413 0.731322 -0.114913 0.085317 -1.98869 0.0145182 0.452324 -0.927977 0.0267204 -4.51208 -0.669656 -8.44164 -2.08609 -1.00415 -0.437069 0.0849226 -0.0869297 -0.915696 0.330758 -0.709962 -6.26613 0.560374 -0.116441 -0.0876725 1.5442 -2.82707 1.68905 0.764033 0.127286 -0.350545 -1.10658 0.395767 -1.41156 0.0565695 -0.824071 1.29148 1.15615 -1.68802 -0.333113 -0.369596 0.704338 -0.44526 -9.67087 -0.325679 -2.21696 0.44022 0.131598 -0.491311 -0.739628 0.886109 -0.437608 -8.9463 -0.737529 1.18167 1.40442 -0.766814 -0.867218 0.329863 -0.237312 -3.45898 0.290785 0.306296 0.871203 -5.0495 -1.09528 -0.192051 -0.61654 -0.732141 0.440282 0.131272 1.05951 1.36174 -0.216013 0.313309 2.48135 -0.615728 -1.09607 0.621224 0.632534 -1.1676 -1.64643 -2.94266 -2.28271 -0.715888 0.237078 0.129416 -0.273429 -0.501137 -0.150634 -0.571328 -0.631131 1.08973 -0.350044 -7.18358 0.0804076 -0.0522953 -0.896743 0.638861 -0.282238 -3.60735 -0.505331 0.242094 0.294598 -0.0729424 -7.44826 0.013534 0.631298 0.194711 -0.311204 -0.163392 0.309723 0.450671 0.363073 -0.735439 0.472967 -0.301134 -0.138222 -0.370542 -1.23081 -0.366449 0.205518 0.595952 0.424311 0.071722 -0.226161 -0.620985 -0.187334 0.350677 0.561212 0.863061 0.635879 -1.02508 -1.03142 -4.28481 0.602184 -0.0091695 -8.83667 0.709822 2.20265 0.0368023 -1.59676 1.39465 -0.72176 0.421809 -0.331936 -0.0101327 0.896778 -2.06164 -0.0170885 0.613203 -1.75048 1.73124 -0.508902 0.751311 -4.60402 0.520144 -2.36591 2.38388 -0.0312099 -1.26313 -4.02016 0.73095 -3.36905 -0.154295 0.627342 0.709392 -0.334341 -0.392577 -2.12915 0.637046 0.0645535 1.2497 -0.221453 0.719216 -0.6224 -0.166416 0.564081 -0.051952 -2.17484 -2.95337 0.625094 1.77796 -1.60955 0.385928 -1.44696 0.272178 -1.08377 -1.25007 0.0795295 -0.241997 -0.196758 -0.634235 -0.9465 -1.32951 0.525241 -1.29736 0.334189 -0.681156 -1.0576 -1.49297 -1.3404 -0.0731734 0.652174 0.0999803 -1.94659 -1.46425 -1.20816 -1.37872 -0.842065 -0.272066 0.149032 -0.461551 -1.40275 -0.977684 -0.0890806 0.517101 -1.12289 -0.932357 -0.962007 -1.68269 0.334677 -0.18748 -0.888648 -0.683779 -1.41925 -0.584929 -0.792195 -0.136152 -1.1841 -0.20054 -0.943725 -0.541637 -0.809391 -4.30783 0.00372475 -0.278885 -1.01592 0.533956 -2.08311 0.0765368 -1.21668 -0.868193 -0.591493 -0.963632 -0.538844 0.730158 -1.23025 0.0220746 -1.20409 0.0499989 -0.525659 -1.03737 -1.20546 -0.773719 0.0557176 -1.58301 -1.86571 0.148689 -0.705304 -1.33517 -1.08731 -0.134599 -0.844415 -0.655037 -1.01295 -0.683198 0.659142 -0.301539 -0.714721 -1.07099 -1.32993 -0.951528 -0.244453 -0.0530818 0.0813285 -0.961575 -1.14051 -1.31603 -0.39315 -0.10178 -1.41562 -1.2605 -1.50717 -0.0960555 -4.0261 -1.99536 5.78238 0.164758 -0.862458 0.417124 -2.12484 1.52256 -3.18935 1.01921 -3.83561 0.969178 0.570076 -3.25307 0.682766 1.44253 0.808828 -0.778822 -3.07504 0.496033 -0.924515 -0.726595 -6.98908 0.273718 0.492001 0.645013 1.69206 0.0768391 -1.15385 1.71016 0.752962 0.734699 0.267501 1.7251 -1.33299 0.337176 0.227865 0.570268 1.68693 0.335353 0.294088 0.400277 1.12446 1.12301 -1.04861 -1.75025 2.07697 2.20982 0.678521 -5.44808 -5.47163 -8.63422 -2.04478 -2.46809 0.495394 0.530683 0.100757 1.23036 -0.860363 -7.18884 0.639081 0.115778 -8.26334 -0.610901 -9.01519 -0.285054 -0.325965 0.504024 -0.322181 -4.37168 -0.848417 -0.359437 0.249732 -0.86378 -0.0958434 0.753748 0.555922 0.544797 1.81882 0.577572 -0.491682 0.890976 0.00386503 -1.01521 0.360943 -0.327468 0.228814 0.792423 0.297168 1.63138 -0.168394 -0.291893 -0.352716 -1.04304 -0.355538 0.1404 0.594779 -0.393099 -0.506996 -0.373356 -2.18091 -0.0119483 -1.35372 -0.680099 -4.33114 0.509093 -0.63852 -7.98808 -3.12836 -0.232896 -0.319303 1.92683 1.14074 -0.448365 0.705969 -1.29603 -0.244213 1.11589 1.57424 -0.073271 0.775867 -2.44275 -0.580042 0.03743 1.13789 -6.20403 -0.773189 -2.96577 -1.59314 -0.043005 1.83342 0.0892085 -0.678659 -2.23411 0.343508 -1.87108 1.14191 -0.181533 0.485489 -0.926601 -0.167113 -4.72546 -2.93536 0.461507 1.27152 -1.90502 -0.56309 -0.693465 0.976235 -0.244968 0.0415168 0.764068 -8.17338 -0.826737 0.292616 -1.1384 -0.441108 0.788988 -1.73009 -0.432168 -0.461927 -0.157799 0.418263 -0.876467 -0.599002 0.786289 -0.820077 -0.0955827 -1.03355 -0.438233 0.0635321 -1.002 -0.808486 -0.161009 -1.37516 -1.58941 -1.58542 0.316941 0.0841671 -1.24718 -1.23531 0.436785 -1.57727 -1.02124 -1.33289 0.860315 -1.01659 -0.902612 -1.4476 -1.23256 -1.23878 -0.822414 -0.297389 -0.137243 0.0384099 -0.831601 -0.324407 -0.0649998 -0.556293 -1.49351 0.261251 -0.0647413 -0.857554 0.0311514 -4.22962 -0.300025 -1.27256 -0.686359 0.0910693 -1.49117 0.103813 -1.03869 -0.809298 -0.792171 -1.20027 -1.80549 0.0753712 -1.61083 -0.360081 -0.80837 0.212083 -0.973366 -0.328428 -1.16601 -0.415895 0.163595 -1.88306 -1.52255 -1.37906 -1.11473 -1.49044 -0.895313 0.355734 -0.338591 -0.224445 -0.164048 0.407338 -0.140196 -1.14092 -0.866941 -1.36306 -0.434468 -1.42694 -0.866046 -1.31489 0.331034 -1.17126 0.524375 -0.915669 -0.0951295 -1.88581 -0.765212 -1.50635 -1.00527 -1.27904 -3.74684 -2.05191 4.52261 0.347443 -0.0337672 0.931929 1.89317 -0.366033 -4.23662 0.190791 -2.57273 1.4411 -0.724072 -4.25543 -0.368259 -1.22441 1.11804 -1.61317 -2.12287 -0.47403 0.039037 0.772283 -6.23228 0.60412 -1.92669 1.40255 -2.56822 -0.313773 1.53294 -2.18001 1.37027 -1.14764 0.240055 -1.93834 0.85701 -0.708625 -5.80346 1.24741 -3.57261 0.429523 -0.0363085 -0.582255 1.01667 1.30147 1.20103 2.11148 0.0606982 0.233374 -0.839601 -4.17207 -3.58094 -5.47947 -8.98943 -2.08222 0.579086 -0.106654 -0.0252386 -0.183771 0.172369 -7.80991 0.318359 -0.640516 1.79397 -0.570739 -1.29945 -0.187221 -0.195275 0.449305 -8.3992 -4.64339 -0.316533 -1.03415 0.331964 0.334397 -0.246991 0.927885 -3.23292 -1.29352 -9.44717 -0.472329 1.14262 0.241314 -1.56069 -0.282108 -0.0705807 0.534568 0.0918152 0.115809 0.551399 0.222891 0.325483 -0.55528 -0.95702 -0.483527 -0.0449534 0.175143 0.149647 -0.515778 -0.179556 -0.0494095 0.354581 0.174382 0.122734 -0.0506947 -0.191225 0.388616 -0.489763 -1.76793 -1.08814 -0.0050067 -0.431217 -0.220415 0.246484 0.00612505 0.66078 -0.258413 0.386773 -5.58536 -0.947127 0.0969756 -0.619282 -2.73018 0.612709 -0.0863247 1.89402 -9.15163 0.181919 -3.79729 -0.866638 -0.258467 0.935848 0.540533 0.105424 0.0555447 -0.939214 0.0103152 -0.885901 0.883573 -0.664459 -0.802151 0.387743 -5.64824 -1.6533 2.00272 -0.337571 0.726463 -0.103543 2.0201 0.814207 -0.402414 -3.13934 -0.589015 1.91785 -2.13254 -1.49311 1.05282 -0.312322 0.304576 0.0826926 -0.162213 1.06969 -1.1952 -1.91459 -1.68172 -0.766394 0.707513 0.87339 0.928366 1.54586 -1.49637 0.843442 0.405847 -1.7561 -0.635305 0.619272 -1.29189 -3.25179 -0.198602 -3.1193 1.59119 -0.27594 1.38348 -4.08522 0.0475673 2.11322 -0.619583 0.823444 2.14194 1.65213 -4.85794 0.973951 -2.70125 -4.51945 -2.9369 -2.04804 1.91033 1.70616 -0.20876 -1.08814 -1.19744 1.38002 -5.26741 -3.25922 0.769263 -5.09069 -0.0353378 0.730525 0.0987525 1.16441 -0.145156 -2.05868 1.62819 -3.11167 0.266005 -0.906396 0.552351 -0.427757 -0.343826 0.189588 1.49794 1.01055 -3.47725 -0.956635 -0.580203 0.64817 -0.618995 0.379886 -5.74816 0.664295 -1.68687 0.103785 0.264252 -1.95723 0.965668 1.02034 0.630776 -0.0586182 -0.141885 1.67248 0.328987 -2.88414 1.54792 1.00237 -2.09047 -3.14747 3.67122 -0.534282 -1.51882 -0.312418 1.22963 -2.0615 2.75854 -8.7829 -2.32632 0.210917 -5.99924 -0.165888 0.0583946 -0.214611 0.324225 0.511361 1.13683 -0.452773 -5.75481 -0.61905 -4.5925 -0.493063 0.347533 0.952777 0.241385 1.49414 0.253464 -4.91243 -2.38167 -0.0597684 -1.33685 1.00188 -4.30607 1.00233 0.579491 0.465587 1.083 0.464646 0.833955 -1.2814 0.610035 -0.318952 0.0424172 0.417425 0.883122 0.0296126 -6.94125 -7.93743 0.879737 -0.808421 -1.58904 0.550334 -0.392347 1.19536 0.930724 -4.54178 0.719951 0.482763 -3.09476 -5.23043 -0.67968 -2.77089 1.25951 -1.33589 -0.296114 -0.607225 -0.91856 -0.115327 0.903796 -6.33561 0.603417 0.703566 0.130297 -0.060072 0.358938 0.232179 -0.589572 -1.08593 -12.8398 -1.74492 0.340196 -0.223389 -0.005304 0.308098 0.0147812 0.357201 0.0461409 -1.25291 1.6613 0.0307812 0.661881 -2.92701 0.145691 0.811249 0.812343 0.0268467 -0.273035 -0.385106 0.819858 1.5411 -0.270956 0.774528 -1.09031 -0.479034 0.244738 1.30615 0.120276 -0.161411 -0.61432 -0.579403 -1.11868 0.101203 -1.74416 0.188365 0.293255 0.111129 -0.282955 0.552722 -1.09144 -0.993834 0.0291725 0.0104668 0.302084 0.259286 -1.16503 0.00919459 1.30896 0.370791 1.19737 -0.132178 -0.264265 0.218926 -0.81726 0.0741597 0.154686 -4.11711 0.0938589 0.45347 1.57511 -0.025212 -0.0687993 1.86915 -0.26588 0.379 0.221415 0.0123582 -0.519009 -6.7361 0.472368 -0.0520174 0.115522 -4.94888 -2.31783 -0.245664 -0.455702 -0.815292 -0.149389 -0.271545 0.175227 -0.24633 0.478166 0.0514151 0.100854 -1.93705 0.116943 -0.298084 -1.09805 -0.0521772 -0.23121 0.861047 -1.471 -0.157412 0.645737 -0.48704 -0.0713895 -0.0482441 -0.360633 -6.40506 0.37322 0.103389 0.617464 -1.04671 0.693575 -0.871014 1.81539 -0.504097 -7.23418 -0.211846 0.00753751 -0.688085 0.356796 -0.111992 -3.4511 0.680145 0.7291 -0.179365 0.11964 -0.570274 0.0818362 -2.79548 -0.353512 0.237229 -6.14487 -5.70733 0.636161 0.300392 -0.355284 0.502436 -0.399109 0.389348 -2.39411 0.234123 -0.930202 -0.0968639 0.208143 -0.152794 -0.00960872 -0.58437 -0.357319 0.242779 -0.790172 -0.244378 0.609103 -0.0322166 -0.586227 -0.00865631 -0.979 -0.280285 1.48312 0.012824 1.05434 -0.308672 0.616896 -0.143875 -1.34735 -9.627 -0.169192 0.706264 0.301368 0.666917 -2.32625 0.0579304 -0.09373 0.50911 0.0519812 -0.938609 -0.188804 -1.15404 -0.634224 -0.153641 -13.4013 0.520145 -0.151019 -4.40578 -13.1494 -0.218902 0.640809 -0.620685 1.28341 -0.0805622 -0.39519 -2.13933 -0.969502 1.22462 0.454419 -0.375748 0.35901 -0.473538 -0.413301 -0.134639 -0.721331 0.990779 0.822918 -0.719595 -0.499889 -0.501815 0.110287 0.738659 0.549539 0.44862 -0.0198405 -1.10342 -1.76088 0.787719 0.250065 -1.54525 1.38824 0.317793 0.0467131 0.548552 0.457348 -1.2985 -0.0204825 -0.135699 -1.78621 0.619472 -0.129458 -0.62213 0.0288133 -0.235544 0.17779 -13.8278 0.700535 -0.102908 0.392184 -0.0247606 -0.362828 0.449942 0.660336 -7.42097 -0.38747 -1.25076 -1.78514 0.271023 0.395885 -0.30096 -0.781428 0.453336 -0.845489 0.617523 0.596584 -0.0707529 -0.335647 1.07897 0.518052 -0.431633 0.524733 0.10686 0.366909 -0.219403 0.158018 0.174218 -0.291479 -6.43974 0.545661 0.526755 -5.35627 0.0150607 -0.0915775 -0.189718 0.0844182 -0.217724 -4.33048 0.0870051 -0.324135 0.969109 0.139404 0.199486 0.70826 0.126482 -0.398902 0.0331316 -1.78875 0.398766 -1.5702 0.632992 0.12151 0.307202 -0.290185 -0.537908 1.19947 0.400601 -0.291026 0.0274842 -0.210257 0.998464 0.0911806 -2.22787 
