-0.212914 -1.11847 -0.555675 -0.0969918 1.46244 -2.31955 0.218843 0.972826 1.9753 -2.45011 0.440729 -0.825772 -1.74667 1.09797 -2.63015 -3.57837 0.785925 15.0377 0.930527 1.82563 0.171731 0.602805 -2.48388 2.69402 -1.71524 1.43174 2.01829 -0.571738 1.78598 -1.69565 0.0434198 -0.131027 0.298714 0.0357734 0.279828 -0.952679 0.412877 0.535689 -0.218172 -0.60867 -0.155927 -0.579778 -0.0977277 -0.52187 0.0995687 0.329093 -0.120498 -0.302914 -0.124635 -1.40951 -2.20907 0.436819 0.165077 -0.532634 0.982049 -0.176056 -0.339019 -1.79094 3.19739 -0.164485 1.29076 0.52697 0.980967 0.646316 4.53199 0.278701 -8.89582 -4.58793 4.92157 -0.384463 1.7828 1.02404 0.602194 1.63932 3.51028 0.699752 -7.49657 -3.1952 3.75091 0.103308 1.80306 -0.113836 0.256236 -0.00209388 -1.20194 0.0649377 0.360185 -1.60831 2.92726 -0.306943 1.25346 -0.00947979 0.342459 -0.030152 0.0734575 0.165845 0.332529 -0.197358 0.636972 0.290134 0.556328 1.94624 0.256687 -0.795547 -0.735421 -0.971334 -0.345102 0.598535 0.909884 0.713262 0.181806 0.283332 -0.225427 0.22488 -0.417516 -0.860698 -0.590734 -0.361103 1.08574 -0.099636 0.184563 -0.329452 -0.600626 -0.740834 -0.404943 0.818034 -0.370275 0.565852 -1.12175 -0.603874 -0.957128 -0.37075 -0.846428 0.383409 0.633564 0.575647 -0.908725 0.49716 0.853103 0.20455 0.56358 0.685885 -0.00821838 -0.178019 0.394221 0.0955302 -0.183057 0.120656 0.0546481 0.842531 -0.576729 -0.179039 -0.687169 -0.496979 -1.09357 -1.11956 -0.508302 0.218627 0.3715 -0.127899 -0.706941 -0.317427 0.106407 -1.24332 0.372035 -0.78383 0.529677 0.101423 -0.620212 0.34092 0.149964 0.257666 -0.381586 0.293576 -0.599943 -0.976701 -0.501404 -0.539048 -0.747604 0.184497 -0.900156 -0.24472 0.282222 -0.735928 0.554738 -0.752503 -1.30051 -0.898278 0.272875 -1.25106 0.630425 -0.105646 0.595552 0.514568 0.0835161 -0.188482 -1.14694 -1.34242 -0.570614 0.251912 -0.679171 -0.711135 0.431681 -0.778184 1.88328 -1.93539 3.029 1.06141 1.47812 0.909945 0.695608 -1.34979 -0.0336979 -0.904572 3.28643 0.807407 -2.01661 4.35957 -2.93296 1.36848 0.933301 -1.20104 -0.588898 -1.22368 1.61845 0.0240993 -3.3711 4.46403 -2.31681 -3.57236 -0.208298 -0.96637 0.232364 -1.02958 1.00886 -1.86138 1.26037 -0.989831 0.613735 -0.977154 -0.953732 1.14885 0.375348 -0.866632 -0.283396 -1.38315 -0.453273 -0.699705 0.0794683 -0.940467 -0.0627493 -0.306756 -0.0140811 -2.01942 -2.34883 0.0122551 -0.763753 -0.0127313 -0.748882 0.335294 0.3922 -1.02134 -0.857204 -0.738822 -1.07534 -0.295958 -0.412223 -0.620455 -0.0476563 -1.89977 -4.63336 1.50494 -1.26023 -0.449936 -1.24712 1.59458 -0.227307 -1.42681 -0.261603 -0.382815 0.174967 0.0384853 -3.44018 0.248697 -1.7367 0.883814 0.237108 -1.08192 8.03965 3.54215 -6.04392 -0.593401 0.882956 0.177313 0.137384 0.239507 -0.491218 -0.771036 1.07831 -0.155974 -1.6584 -0.486271 -0.53507 -0.257192 -0.110663 -1.39205 -0.643303 -1.12452 1.61755 -1.61301 -0.694469 -1.83724 -0.926839 -0.567136 -0.272921 -0.0392466 -1.13111 -0.723301 0.149244 0.642268 -0.31563 -0.695698 -0.709995 -0.088415 0.298873 0.712543 0.303871 0.0470967 -0.0570855 -4.73668 -0.0309624 -3.58691 0.576637 -0.237152 -0.00165594 1.53611 -1.16655 1.59272 -2.22201 5.23999 -1.86731 1.051 3.18286 -2.95443 0.371809 -1.78648 0.33282 0.402867 0.384797 0.578005 0.62726 -0.603036 -0.250656 0.289628 -0.426524 -0.11072 -0.159441 -0.254309 -0.741158 -0.290282 -1.83366 0.205488 -0.949122 0.409822 -0.588298 0.674437 -1.86173 -0.240072 -1.24208 -2.93524 -1.58292 -3.86575 -1.1953 2.00639 2.87431 2.46252 -0.27233 0.260382 -0.182187 -2.98968 1.02478 -3.86587 -0.106326 3.15195 5.9898 3.17946 0.657526 0.301825 -1.43698 0.766725 -1.39655 1.35175 1.3107 2.66209 -0.661064 2.22671 -1.23464 -0.401963 -1.34164 -0.00310069 -1.8944 0.29133 -0.855417 0.545208 -2.27799 -0.3158 -1.94575 -3.75766 -2.84072 0.548613 2.94382 0.726906 -1.18455 -0.835224 -0.656709 -0.369876 0.236364 -0.82578 1.30807 0.704045 -1.29533 -6.44884 -0.90578 -1.3013 0.754945 -3.44715 -0.607833 0.399841 -0.343597 0.211059 -1.44325 0.612908 -0.842975 0.986902 0.902655 -3.91568 0.541608 -1.08821 -0.333454 -1.58876 2.01923 -3.19584 -0.197183 2.22476 -0.676127 0.96144 -0.653754 0.515573 -0.638858 -0.891783 -0.372413 -0.989711 0.109481 -0.368883 0.00712635 -0.934341 -0.613581 0.240863 -0.37215 1.07887 0.407488 -2.00913 -0.166352 -0.166081 -0.917806 -0.62538 -0.629247 0.755089 -0.745682 -2.42167 -0.173886 -1.154 -3.20591 -1.06757 -2.31576 0.597047 3.51966 0.0967505 0.276855 -0.592424 0.00394089 -0.746004 -5.38964 -0.87958 2.25045 1.95458 -2.80427 0.570394 -0.949868 0.480127 -1.2576 -0.362994 1.62496 -0.0783219 4.7744 1.49446 2.39143 -0.26184 -0.526901 -0.34758 -0.970624 0.773025 -1.2218 1.0328 -0.138924 0.774998 0.0305539 -0.370169 -1.66793 -1.34363 0.501552 -0.631615 0.0210617 -0.461435 0.63876 -1.67287 -0.805396 0.872195 -2.3414 -0.60378 0.202099 0.605447 -1.35025 3.15439 0.240572 -4.78781 -0.545191 -1.63298 5.70963 -0.995012 0.952786 0.309935 -0.282469 0.255317 -0.909605 -1.83435 -2.55871 0.0107994 -1.30703 1.16468 0.140744 0.302676 -0.212052 -0.211336 0.133605 -0.590606 1.13879 -3.42739 -0.483933 -0.136459 -0.242856 -0.402569 -0.144078 -0.646497 0.31687 -0.383394 0.010042 0.439797 0.143304 -0.437657 -0.718352 -1.05274 -0.538288 -0.67768 0.674462 0.334297 -0.308464 -1.18778 -0.436012 -1.16393 -0.247705 -0.341391 -0.80204 -0.0408376 -1.19923 -0.385502 0.340015 -0.291238 -0.521933 0.634378 0.118847 0.536486 0.315574 -0.505039 -0.656607 -1.26261 0.742353 -0.466288 0.681778 0.557202 -0.320749 -0.406752 0.0898697 -0.0592094 0.467589 -0.583263 -1.17875 -0.415152 0.442588 -0.390132 -0.421376 -0.20942 0.0821223 -0.286049 -0.0102927 0.454591 -0.47779 -0.350327 -1.16404 -0.675422 -1.14268 -1.04643 -0.0630437 -0.810319 0.263767 -2.24512 2.92441 0.188255 3.07546 5.89823 2.0915 -1.2557 -0.0178549 -1.08401 -2.76908 1.50544 -3.15293 0.984574 1.24906 5.30474 2.66973 1.9633 0.302485 0.143353 -1.36317 2.01764 -2.49519 -6.83905 -0.827757 2.66635 0.580085 0.323395 0.417262 -0.0646804 -0.851223 2.0453 0.427878 -1.34087 -0.73219 -0.278245 0.513715 -0.365266 0.0694682 -1.72836 0.00153164 0.481283 0.191504 0.0454616 0.0533193 -0.510781 -0.209827 -0.796821 -1.94938 0.394161 -0.801351 -0.0676146 -0.673195 0.476413 -1.30202 0.0357581 -0.0526331 -0.384646 -0.293764 -0.0244172 0.568405 -0.184478 -0.392745 -0.476836 0.115596 -0.191727 -0.912743 0.153162 -1.27244 0.288347 0.0924033 -1.08071 0.207507 -0.27008 -3.51009 -0.0810574 1.22009 0.103013 1.32773 -1.20053 0.881344 -1.45776 -0.668233 -0.464783 0.151054 0.0297223 -0.831666 0.526677 -0.996936 -2.27466 0.530723 5.69463 -0.485191 -1.09591 0.843259 -0.344978 0.713029 0.221691 0.429224 0.27176 -0.582093 -0.497821 1.21163 0.211776 -0.0865837 1.0009 -0.326391 0.603375 0.0659718 0.131803 -0.7775 2.00256 0.278601 -2.42658 -1.25808 8.81554 -0.786313 -1.85369 0.19568 -0.193998 -0.160744 0.0885135 -0.0335946 -0.945013 -0.861474 -8.06792 0.193807 0.639424 0.369331 0.495551 2.54867 -0.0485213 -1.53574 0.0691094 -0.749134 2.24859 -0.616687 1.15605 0.43341 -0.0358632 -0.563262 0.651479 0.200136 -0.655584 0.302664 0.316146 0.383418 0.58309 -0.439363 -0.652523 0.344367 -0.650139 -0.640062 -1.33805 -0.0597914 1.14348 -0.607269 -1.02214 -0.50729 0.80306 0.0442671 0.976764 -1.08422 -1.09231 -2.32519 -0.132216 -2.64299 1.95266 0.423746 -0.841591 -0.271013 0.0182576 -0.346704 -0.799635 0.387235 -0.285353 -0.337058 -0.89397 -1.3203 -0.316967 0.288208 0.751307 -1.15888 1.7171 -4.92799 -0.668199 -0.607698 -0.134354 -0.845261 0.646573 -0.336519 -1.2156 -1.05859 0.239232 -0.352214 -0.0403941 0.451703 0.294711 -0.452172 -0.257196 -0.869915 0.165636 0.181709 -1.39915 -0.555623 -0.470097 -0.053509 -1.05636 0.126732 -1.85246 -0.179331 -0.590304 -0.206977 -0.654398 -2.60252 1.127 -1.81624 -1.69423 0.304416 -0.312935 0.667072 -1.37958 0.0891908 -0.0484774 -2.74974 -1.19221 -2.53224 -2.60165 2.17352 2.65882 2.64664 1.10661 0.13818 -0.408664 -0.593041 -0.524354 0.909216 -4.01542 2.25618 8.74618 2.86922 3.27161 0.00112764 -1.48913 -0.377192 0.372143 0.508646 -1.29721 1.64652 0.324846 2.79137 -0.756488 -2.78487 -1.13597 -1.42292 -0.163104 -0.792752 -1.3832 -1.61452 0.391451 -1.15266 0.646922 -0.236074 0.168701 -0.717172 -1.44528 -5.69771 -0.679443 -2.44816 1.27776 2.66462 1.51324 0.562661 -0.160273 -1.50562 -1.20514 -1.04457 -1.15277 0.638212 1.58953 6.45653 0.990612 2.2764 -0.194178 -0.515551 -0.698764 1.24784 0.407256 -0.94619 1.36013 -0.68199 0.338921 -0.42828 0.244204 -0.0622144 0.170694 -0.586517 0.0226583 -0.232914 0.035887 -1.72975 -0.200948 -0.376787 -2.41247 -0.00428815 -0.991131 -1.29931 -1.26133 -0.181602 -0.652717 -1.19248 -0.410108 1.47256 -0.645459 1.09544 -0.459881 -0.426196 -0.715921 -0.201068 -1.33937 -3.2689 0.316518 -0.193314 -0.100238 1.30815 1.19854 -0.110553 0.939697 -1.40505 -0.805038 0.185012 -0.0613453 0.255092 0.0322955 0.266748 0.0672773 0.742852 1.14432 -1.12177 2.49518 1.06615 0.363681 -0.253026 -0.24603 -0.374856 -1.20234 -0.338816 -1.10983 0.826058 -0.369069 0.678036 -1.01592 -1.43374 0.13828 -1.68691 0.415753 -0.17939 -0.140807 -0.565273 0.417419 -0.342912 -0.42853 0.861923 0.564805 -0.729811 -0.560086 -1.01804 0.738544 0.666824 0.702137 -0.795815 -0.361148 0.715374 0.0682899 0.439801 0.0571952 -0.353017 -0.74458 -4.45109 0.704273 2.77345 -0.537811 -0.704083 0.0478865 -0.273294 -0.463782 0.851782 -0.748261 1.45052 -2.0345 0.656899 -1.63726 0.488814 -1.80262 1.29788 0.2003 -0.366455 0.0264089 -0.339809 -0.0859949 0.640946 -0.648043 0.515705 0.219862 -0.39852 0.390003 -0.35544 0.574617 0.115042 -0.01465 0.0797517 0.125199 -0.227099 -0.450796 -0.0995145 -0.900421 0.425723 -0.93959 -1.38448 -2.62915 0.252576 1.83395 0.740699 -1.01283 -0.204946 -0.251598 0.196311 -1.69039 0.0287293 1.61137 -1.54582 -1.91385 -0.279812 0.756879 0.255824 0.0735029 0.59887 -1.25384 -1.78683 0.89275 -0.903727 -4.74717 -1.45583 0.634311 0.693061 -1.2823 -0.914372 -0.143169 -1.83136 0.756886 7.10069 -3.84829 -1.1743 -0.314364 -1.12429 -0.931473 -0.0527217 -0.56249 -0.826122 2.39565 -1.32225 2.90351 -0.616013 1.95753 0.271098 -0.0296213 -1.5508 -0.0513428 -2.28343 -3.55707 -3.90573 -2.83874 0.936207 2.9377 1.92804 0.750434 -2.37817 -0.915455 -3.07557 -3.20404 -8.87796 -3.02722 3.51496 2.99054 1.81513 0.456116 0.31993 -0.792922 0.0107252 2.24549 -1.13949 0.791748 1.98707 1.45442 -0.756351 -0.418568 -0.510795 -0.447314 -1.80027 0.517293 -2.0322 0.196531 0.705694 0.101256 -1.36514 0.31683 -1.51875 -3.40146 0.0518466 -0.383364 0.237158 -1.31706 -0.0581542 0.926644 0.292796 -1.06783 -0.120296 -0.305958 0.900496 -0.635044 -2.97036 -2.3606 -1.05865 1.37192 -0.312713 0.561052 0.424858 -0.717023 3.56745 -0.112296 -2.6788 -0.979767 -2.8659 -5.0176 -0.0767636 1.18465 0.542996 -1.12431 3.11224 7.33663 2.66357 2.86915 -0.203021 0.640308 -0.273718 -1.55572 -0.056316 -0.667882 1.52142 0.831566 3.08394 0.402478 0.22445 -0.345397 0.0601291 -1.57096 -0.231549 -1.81935 -2.65621 0.138674 0.431797 0.438959 -0.684458 0.28132 -1.46931 -2.70179 0.516832 4.13012 -0.350759 -0.643158 1.20892 -1.22642 1.40445 -0.750843 0.224133 -3.04434 1.04488 -2.00911 -0.16167 0.196287 0.072676 0.453289 -0.262611 -0.34499 2.72627 3.05499 -2.68203 0.382683 -1.65276 -0.0118274 0.507743 0.00925119 -0.564622 0.182219 -1.14636 -0.152394 -0.556068 0.415209 0.371849 0.0132314 -0.92287 -0.0899098 0.261403 -0.182018 0.105633 0.360115 -0.839106 -0.0651123 0.662875 -1.29896 -0.354868 -0.870355 0.192697 -0.839865 0.416818 -1.64339 -1.84598 -2.3543 -0.900332 -0.400237 1.14885 -1.65528 -0.826708 0.597775 -2.27361 -5.3158 0.284874 0.694013 0.436413 -1.17099 1.91656 0.98072 -1.14733 1.94382 -1.90242 -1.94271 -0.744172 1.5275 3.23176 -1.95236 1.50201 0.4105 1.43436 -0.822616 0.684673 -2.95175 -0.387868 1.28407 -0.556463 0.324586 -0.122817 -1.19797 -0.644352 -0.633426 -0.152473 0.0247233 0.0237933 -0.699967 -0.740427 -1.50792 -2.56395 -0.280139 0.520054 0.928426 -1.98292 0.822785 -2.23132 0.340975 -1.39415 -0.0968278 -0.3913 -1.54646 0.378311 -0.443624 3.53775 -0.653463 5.93736 -0.252215 0.77175 -0.157447 0.157616 0.240993 -0.814366 -0.840505 -2.03589 -0.504201 -4.03436 0.215956 1.44747 0.374722 0.141082 0.433838 -2.09395 -0.611833 2.51402 -1.00539 6.14797 -2.85927 5.58372 -1.19983 1.76788 -0.556395 -0.264042 0.432778 -0.0575245 0.64082 -0.469819 -0.362862 0.711972 1.38398 -1.24964 -0.63857 -0.0833897 -0.987094 -0.376196 -0.718492 0.397229 0.353677 1.619 -3.02888 -0.681899 0.471024 -0.23517 -1.07881 -1.58945 -1.16197 0.361162 0.195134 -2.46576 4.74291 -1.08992 1.0424 0.319138 -0.223138 0.115708 -0.106267 0.321946 -1.48013 -0.458376 -2.94057 5.81124 -5.28782 0.163569 -0.020566 -0.105613 -0.337614 0.0823119 0.802443 -1.53028 3.09639 -1.45381 1.34705 -0.078046 -0.185386 0.213781 1.07721 0.51478 0.139125 0.729373 -1.79978 -0.824238 0.0694737 -0.17665 -0.79695 -0.843688 -1.15502 0.538209 0.0378924 -0.492137 -0.686408 -1.083 0.181009 -1.01242 2.32284 -0.0891848 -1.3357 -0.238177 -0.731333 -0.944204 1.7082 0.622351 -0.689461 -0.0380943 -0.948387 -1.20981 0.168357 -2.52846 -0.777994 -0.785092 -1.2514 0.506328 1.04624 -0.591085 -1.99496 -0.924778 -1.14137 -1.62201 2.74193 -1.65958 -0.368189 0.960388 -0.718362 0.648657 -0.734943 0.437809 1.44257 0.076902 -0.261263 -0.261791 -1.11042 0.351446 -0.0792125 -0.112937 -0.534128 -0.197623 -0.614087 -0.228697 1.10485 0.908528 -1.92106 0.0732206 0.85383 -0.0694679 -0.615887 1.39132 -1.4572 -0.927951 2.87297 -0.610508 1.9345 -0.799531 1.1051 -0.147997 0.310168 0.267248 1.50182 -1.91224 2.1953 -2.37611 -2.06244 2.35728 -4.33074 -0.0559455 -0.473475 0.208791 -0.929805 3.08127 -5.17063 -2.11704 13.5734 2.16897 -5.70605 -0.427107 0.279624 -0.847561 -0.197204 1.15084 -2.24621 -0.700393 4.77036 0.938551 -2.84182 -0.666346 -0.973057 -1.62443 -0.0633368 -1.0697 -1.01192 0.458448 -0.6825 1.03843 3.90656 -0.803526 -0.0613103 0.719285 -0.274928 -0.380877 0.145839 1.8297 0.310603 0.51908 -1.89124 -0.684811 -1.13759 -0.590616 0.755411 0.613224 -0.548314 -0.84745 0.135524 -5.72956 -0.683061 -2.32797 -0.122482 -0.581863 0.0321482 0.270601 -0.0906418 1.64204 0.521919 -2.59512 -1.84707 2.85145 3.90715 0.959577 0.00861213 -0.796836 -0.186882 -0.260879 0.259899 -0.567232 -0.485653 0.819085 -1.54537 -0.0113644 -0.922093 1.99244 0.328669 1.21758 2.71784 0.591795 0.138722 0.580293 -2.31895 -0.166304 -1.48253 0.922252 1.71905 -1.4843 6.27409 -1.78575 1.74091 -1.3415 2.48402 0.180354 0.859124 0.418654 -1.04822 -1.90574 -2.19397 -0.444126 -3.43427 0.656458 3.32448 0.743962 0.246692 0.805658 -1.98186 -2.11916 0.495854 0.457572 -0.926968 -0.747047 4.75404 0.0388009 -0.24106 -0.239768 0.0867822 -0.144182 -0.0116512 0.480059 -0.688435 0.311696 0.282557 0.15498 -1.20788 -0.576908 -0.417129 0.0576821 -0.0642084 -0.0986513 -0.68677 0.104877 -0.825298 -0.436744 -0.530337 0.0389834 -0.426105 -0.376197 -1.55344 0.108906 -1.04391 -0.931854 -1.41879 -0.0440023 -0.337964 -1.30439 0.327103 -0.627958 -0.0503543 0.545309 -0.784454 -0.664467 -0.445717 -0.0774385 -0.300656 -0.0544236 -0.759987 0.126083 -0.21414 -0.668416 -0.559314 -0.889406 0.284557 -0.397143 -0.841258 -0.163043 -1.35529 -1.3469 0.405442 -1.45297 -1.26921 -0.970719 -0.957736 0.530815 -1.3832 -0.0230554 -0.33847 -0.825931 0.786608 -1.05715 -1.25642 4.39375 -3.41383 -0.955967 0.627223 -0.656896 0.308892 -1.17516 -0.74105 -0.965046 3.93416 -0.47573 0.809897 -1.61294 2.09082 -1.49416 0.172664 0.588341 -0.544323 -1.00643 -0.951894 -0.509086 -1.45685 1.97654 -3.67502 -0.294314 -1.23519 0.182047 -1.06369 -1.7414 2.47945 -0.861852 1.43977 0.195656 1.45753 0.152458 -0.879075 -0.390633 0.373456 0.137492 0.404117 0.776161 -0.439355 0.0944864 -0.31477 -0.805258 -0.500554 -1.27846 -0.233859 0.17768 1.31569 0.284456 1.73355 3.20373 0.858006 -0.365674 -0.457545 -1.02219 -1.36691 0.0746362 -0.361428 -5.05847 -1.45912 2.3373 2.56401 0.770081 0.0696635 -0.798829 -1.02211 1.53675 -0.0129778 -3.77909 0.229606 -6.69324 0.313169 -1.8574 0.191456 -0.0858562 0.588 -0.0677394 -2.12706 -0.155804 -2.10997 1.14443 -0.966836 -0.55405 -0.406357 0.977854 -0.155097 0.106906 -0.270844 1.38864 0.144809 0.821151 0.694342 0.417884 -0.524379 -0.507811 -0.288552 0.373366 0.262518 0.323019 -0.17713 0.480727 -0.197243 0.514689 -0.801481 -0.0875496 0.0290048 0.441358 1.73656 0.191257 2.58077 -1.28489 2.66029 -0.431948 -0.0145275 -0.512728 0.444318 0.478937 -2.02711 -0.478482 -2.3577 -0.602383 -1.99316 0.745526 -1.69837 0.215413 -0.706967 -2.88268 0.171773 -3.19408 1.41062 0.754537 0.403633 -0.281815 2.179 0.214814 -0.448495 3.39017 -0.0451372 -1.12068 -0.419033 0.231548 0.683571 0.289383 0.335669 -0.241779 -0.949309 -0.123898 -0.296934 -1.79708 -0.0856935 -0.717954 -0.120154 0.511578 -0.17247 -0.841399 -0.230807 0.0963871 -0.239403 -0.703028 -2.67707 -1.26515 -3.10672 0.0598649 0.0432228 -1.68921 -0.465482 -0.820792 0.0112495 -1.69912 -2.23065 -1.04036 -3.2107 -3.40167 1.80873 -2.8342 0.28709 -1.39982 -0.207051 -1.55056 1.05557 -0.403098 2.80466 10.7754 1.41074 8.55723 0.571518 0.12105 0.385179 -1.91905 1.53875 -2.83025 2.96336 3.39565 3.00028 0.937528 1.36812 -2.10062 -3.58411 0.0307155 -1.2797 0.0213399 -1.00439 0.133028 -0.30141 0.897154 0.0774918 -0.00873426 0.399629 0.830074 0.897611 -0.0349972 -0.736524 -0.339134 1.67232 -0.28695 -1.54312 -0.73502 0.943027 0.883823 0.174813 -1.82834 1.20401 -1.68255 -1.3828 -1.48028 -4.00398 -0.37798 0.0668518 0.719703 -0.450313 0.0989187 -1.57584 -1.72238 -1.28723 7.25935 -3.34763 -0.525193 -1.19877 -0.146175 0.280203 -0.043532 0.12278 -0.0268368 -0.83017 -0.854913 -0.0713871 0.185597 0.403272 -1.47162 0.307985 -0.698081 -1.22897 -0.329707 0.39109 -1.89997 1.12586 -0.143036 0.582247 -0.337392 -0.0914154 -0.301961 -0.0228826 -0.56816 0.0114497 -1.442 -2.41158 5.79704 -0.716509 1.6451 0.286242 1.47312 -1.06958 -0.496062 -0.905971 -0.415946 6.34638 -11.5209 0.13571 -1.42665 -0.100779 0.171966 0.737374 -1.32963 -0.881452 0.696016 -1.70536 3.48175 -2.21355 1.59026 -0.180917 -0.145123 -0.0366381 -0.449984 0.381367 0.813219 -0.00317951 0.679918 0.866475 -0.379228 -1.24664 0.0779204 -0.505173 0.367199 0.0190508 0.378771 -0.0485436 -1.14543 0.215678 0.212495 -0.106066 0.0675109 -0.748398 -1.8519 2.92049 -2.79981 -1.05066 0.779359 -2.07514 -0.62282 -0.152099 1.21961 -0.505811 -2.77594 -1.73455 -2.15128 -1.85847 -0.482497 0.218638 -0.357687 0.541513 1.66412 2.68096 1.15808 5.66763 1.42376 1.75737 0.0735618 -0.565088 1.2458 -0.766046 2.27893 -1.06441 2.33465 2.09873 1.24791 0.414299 0.109688 0.326999 -0.751402 -0.606022 -1.81873 -0.125433 -0.9873 -0.762552 -0.4486 -0.104319 -0.73964 0.158095 0.0970048 -0.435371 -0.204659 -0.089696 -2.02947 -2.51742 -1.64587 -2.47668 -3.19838 -0.804486 0.583545 0.0407384 0.376747 0.636932 -1.44425 -1.9298 -0.359597 -2.95065 0.458394 0.383388 -0.56002 0.0594329 -0.222587 0.932112 -1.33966 1.29751 15.0767 2.27023 5.6076 0.892865 -0.207524 -0.547476 -0.888143 1.70299 -2.38102 1.90289 1.88315 2.37873 0.777245 0.27545 -1.96142 -0.125629 -0.665164 -2.63253 0.742638 -0.174618 -0.532324 1.31308 0.723245 -2.20011 -0.15895 -1.52655 -0.457664 0.38397 -0.217745 1.22667 -0.721376 4.89748 -0.333864 -1.08869 -0.445703 1.45884 0.616508 -1.30448 -0.257139 0.115712 -1.06847 -4.40439 -0.35129 -1.95152 -0.769011 2.32898 0.544566 0.579078 -2.04424 -0.694107 4.66209 -1.48903 -2.21782 0.378765 -0.856278 2.90703 0.68764 0.638767 0.336883 0.471812 -0.319009 -0.99085 0.340623 0.308406 0.466388 -0.349784 -0.925161 -0.44024 -1.06096 -1.78012 0.228087 -1.85139 -1.07805 5.00895 -1.77323 -0.758477 -0.0905599 -0.842627 0.307599 0.302687 -0.246916 -0.720302 -2.85901 -0.23669 -2.68676 -1.00933 2.15005 0.5579 -0.216032 -0.490603 -0.307043 -0.273556 -4.62742 -0.781185 -3.93119 -1.26385 4.7968 0.314783 1.83492 -0.0845461 0.0678074 -1.6003 -0.226409 1.45536 -1.70618 -0.511252 1.46568 0.508994 -0.0855988 0.463353 -0.90824 -0.161074 -0.076994 0.00974241 0.0927017 0.176819 0.427087 -0.248631 0.244985 -0.324551 0.834103 -0.571253 -0.788096 0.914625 0.218504 0.404739 0.327411 0.162561 -0.40103 -0.310313 0.0726842 1.04324 -0.723313 3.08126 -0.878617 -0.94219 -0.134272 -1.33282 -0.217803 0.737332 0.902306 -1.13581 -0.635972 1.52143 -0.735368 -3.63676 0.0741103 0.546649 -0.16929 -0.264152 -1.82305 -0.28956 -2.01931 3.3581 2.67389 0.784817 -1.13478 -1.42846 -0.0245973 -0.904304 -0.875524 -0.115 -0.00600051 -0.485083 0.663781 -0.785693 -0.241611 -0.529593 0.450616 -0.591828 0.457839 -0.427529 -1.00283 -0.0585894 -1.07844 0.536354 -0.470925 0.0513589 0.230853 -0.0337069 0.300646 0.0216621 -0.752376 -1.50728 0.432423 -0.119898 -2.29583 -0.113284 -0.439027 -0.203636 0.565241 0.563312 -0.638262 -0.639366 2.88752 -1.23318 0.0652611 0.466525 -1.92816 0.517235 -0.895652 0.0525052 -0.500867 0.718905 -2.21639 -0.884366 0.219783 -0.791736 -1.59044 -1.00223 1.01733 0.273473 -1.18577 -0.558903 -0.517155 -1.54198 1.38502 6.12126 -1.11936 -2.24541 -0.904825 -0.624107 1.56852 -0.0327766 0.187105 1.87877 -0.182344 0.819014 -1.43058 -0.277105 0.0599634 0.480557 -0.683385 2.76777 -0.0781278 8.47712 0.0380822 -7.25216 1.49222 -3.63782 -0.300766 -0.37308 0.381647 -1.46611 -0.409214 -9.05727 -0.987395 5.03796 -0.544494 -0.526411 -0.0936198 2.2429 -0.431742 1.26862 -0.911024 0.231461 -1.23095 2.73143 1.29524 0.801083 0.806223 -0.163569 -0.710255 0.398411 0.529737 -0.544693 0.117536 3.19163 0.373202 -0.0365885 -0.870281 0.73538 0.537746 -1.02582 -0.588776 0.195165 -0.182048 -1.75691 -0.848 0.529924 -0.550072 -1.1188 0.583465 0.564886 -0.820782 0.122337 -4.21398 -0.109565 -2.08304 -0.412994 -0.490974 1.3976 1.07165 -0.416043 0.669274 -0.318367 -0.824834 -1.39664 -1.54163 -0.564739 0.383509 -0.0400432 0.679096 -0.375646 -1.21826 1.29758 -0.996771 1.60758 0.628644 -0.324971 1.59533 -0.459775 -1.10181 -0.229238 0.346216 -1.69558 -0.696539 0.187228 0.0150679 0.97825 0.348618 -0.484731 -0.27096 -0.592964 -0.15559 0.256839 0.356543 1.88577 0.790279 1.68426 0.411515 0.819726 0.191194 -0.768868 1.44926 0.547738 1.00814 1.93044 -0.695627 1.82075 -1.16075 1.084 0.127296 0.366683 0.310058 1.40906 0.852744 -1.14912 0.420035 -8.14102 0.358465 -1.21185 0.25325 0.7179 -0.745843 2.02602 -2.33027 1.68183 -4.86088 6.04533 -1.11115 2.52086 0.126075 0.770194 -0.855722 0.26243 0.510228 1.12226 -0.06429 2.33603 0.513024 1.28731 -0.320743 0.750261 0.611228 -0.347606 0.468044 -1.10769 1.07375 -0.713064 -1.24769 0.169119 -0.0983118 -0.827233 0.479047 0.183714 0.336198 -1.06287 -5.35142 -0.380623 -5.4631 0.0609214 -3.48639 0.0391653 -0.341325 0.0793226 3.22806 -1.50976 8.99936 -2.05856 2.66278 -0.498352 4.23287 -0.0961798 2.2839 1.34066 -1.8262 0.627783 3.01774 1.57443 3.44861 0.0827737 4.7876 1.34429 -1.53324 -0.0649697 -0.981014 0.182033 -0.53344 1.03962 -0.429997 -0.0957532 1.52454 -0.586776 -1.18838 -1.29901 1.20052 -1.08965 -1.45537 -1.03441 0.480198 -0.723931 0.539031 -0.7855 -0.700986 -0.932739 -1.77999 0.122682 -1.47697 -0.604798 -1.17149 -1.06833 1.39813 -1.88348 0.0609638 -0.496183 0.347627 -1.01519 -2.59492 -3.50272 -1.75975 0.92876 1.46423 6.40503 -0.0176823 1.85571 0.30165 0.542984 0.692205 -1.74427 1.71394 -0.392422 2.92718 -4.97789 0.669116 -1.49811 -0.185626 -0.23824 -0.0226574 0.389535 0.321483 -0.375794 0.426002 -0.712942 -1.64779 -0.756082 -1.81987 -1.25723 -0.938265 0.439643 -1.54573 0.587896 1.3054 0.521813 -0.116635 -0.274081 -0.815701 -1.83911 -1.42262 -0.544991 -0.272225 -1.87601 3.88665 0.875284 -1.22795 0.166381 -1.15141 6.38004 -3.00901 -1.5423 -5.10911 -0.945046 3.07916 0.834186 0.962782 0.520569 -0.526793 -1.25738 -1.36042 -0.995634 -0.174575 -0.196036 0.888104 0.533904 0.714241 0.107821 0.32279 -0.741515 -0.0500018 0.248624 -1.40732 0.110653 0.144414 0.412606 0.197151 -0.318848 -0.335349 -1.6518 0.517693 -0.894656 -0.232069 -0.00410952 -10.5771 0.0580562 0.00618101 -0.00592987 0.418228 -1.34491 -0.700918 0.832474 0.172821 -0.21481 0.894847 0.425977 -0.393638 0.374287 0.397433 -1.47497 0.370851 -0.13051 -0.233656 -0.489913 -0.392462 -0.135179 0.361829 0.542128 0.107223 -0.161848 -7.82442 0.0325987 -0.268216 0.510937 -0.409706 0.0818837 -0.233484 -0.541389 -0.0971513 0.275034 -1.06665 0.72144 -0.621453 0.207903 -3.32566 0.404875 0.455447 0.689679 -0.929547 0.608941 -0.719423 1.64273 2.35025 0.818567 0.811195 -8.68416 0.6773 -1.61779 0.802592 -2.75494 1.00873 0.475268 -0.345167 -3.85348 -0.345993 -3.83056 1.04609 -0.447368 1.4317 0.621567 0.152286 0.0938868 -5.42551 0.055468 -0.0885086 -0.0274461 -3.82862 0.0539256 0.617649 1.0284 0.274234 -5.90452 -0.144563 -0.0860295 -1.70045 -1.68324 -0.525976 -0.968447 1.76185 -0.376763 0.94657 -0.299657 1.75985 -0.418648 0.0798516 0.160602 0.343968 -2.41251 0.629192 -0.862697 -0.0692873 -2.48641 -5.28436 -1.01828 0.596158 -0.558339 -7.6501 -0.106854 -0.118969 -0.0347401 3.24834 -0.00280004 0.0581863 -0.428183 -6.37913 0.208078 -0.643498 0.377838 -0.26275 0.672724 -0.684605 -0.461164 0.0937774 -5.25027 0.29209 -0.178158 0.147536 -2.01608 0.0453787 0.361123 -1.07495 0.0705127 -4.53601 -0.670239 -8.45214 -2.07008 -1.08597 -0.570972 0.070935 -0.425601 -1.04792 0.0214095 -0.733911 -6.25578 0.424351 0.0168339 -0.130822 1.56096 -2.85622 1.57262 0.826323 -0.0646428 -0.784372 -1.12768 0.6784 -1.41991 0.0519853 -0.729301 1.08154 1.24995 -1.67629 -0.235525 -0.488967 0.736608 -0.446186 -9.67931 -0.304502 -2.19091 0.448785 0.0919509 -0.542147 -0.770607 0.897173 -0.361997 -8.95487 -0.810811 1.32248 1.28848 -0.757928 -0.847716 0.314052 -0.255819 -3.40308 0.301993 0.302964 0.893754 -5.0586 -0.931736 -0.117947 -0.659001 -0.651607 0.535676 0.163611 1.04079 1.36929 -0.0762219 0.167519 2.46238 -0.579073 -1.07983 0.600797 0.575036 -1.0582 -1.5006 -2.94646 -2.23506 -0.728049 0.234832 0.00109482 -0.171371 -0.487404 -0.153515 -0.531939 -0.583779 1.15362 -0.350618 -7.20438 0.112975 -0.0180848 -0.926319 0.641487 -0.233352 -3.59422 -0.625318 0.129565 0.334133 -0.0337968 -7.42954 0.126379 0.672725 0.337969 -0.263353 0.113829 0.245733 0.455215 0.36244 -0.754398 0.201059 -0.375679 -0.0933012 -0.339716 -1.03831 -0.287913 0.276119 0.68579 0.384543 0.0948543 -0.30842 -0.676752 -0.139139 0.176916 0.68107 0.981302 0.497651 -0.885426 -1.07761 -4.28342 0.531848 -0.0141341 -8.84191 0.688342 2.07202 0.209675 -1.61647 1.29024 -0.763284 0.418884 -0.404073 -0.136852 0.878476 -2.07226 -0.0199442 0.596755 -1.75383 1.68981 -0.498974 0.732083 -4.60043 0.496535 -2.3714 2.33058 -0.179799 -1.2938 -3.96684 0.666252 -3.39141 -0.157996 0.505595 0.445406 -0.353241 -0.402801 -2.15894 0.55023 0.0619008 1.22603 -0.214461 0.595807 -0.741466 -0.341318 0.452834 -0.11011 -2.30957 -3.05443 0.473536 1.80042 -1.98092 0.385869 -1.44708 0.27211 -1.08381 -1.25015 0.0794406 -0.242118 -0.19679 -0.634269 -0.946592 -1.32956 0.525215 -1.29743 0.334098 -0.681222 -1.05765 -1.493 -1.34044 -0.0732229 0.652009 0.0999081 -1.94663 -1.46431 -1.20819 -1.37876 -0.842107 -0.272156 0.148954 -0.461661 -1.40284 -0.977733 -0.0891202 0.517055 -1.12307 -0.932458 -0.962046 -1.68274 0.334425 -0.187513 -0.888685 -0.683868 -1.41928 -0.585036 -0.792242 -0.136267 -1.18416 -0.200816 -0.943814 -0.54171 -0.809449 -4.30835 0.00365186 -0.279066 -1.01595 0.53384 -2.08317 0.0764467 -1.21681 -0.868267 -0.591577 -0.963716 -0.538962 0.73007 -1.23036 0.0219452 -1.20422 0.0499513 -0.525721 -1.03745 -1.20559 -0.77385 0.055624 -1.58307 -1.86584 0.148654 -0.705357 -1.33519 -1.0874 -0.134741 -0.844565 -0.655186 -1.013 -0.683301 0.659111 -0.301589 -0.71483 -1.07109 -1.32999 -0.951677 -0.244547 -0.0531553 0.0811933 -0.961606 -1.14062 -1.31608 -0.393222 -0.101867 -1.41577 -1.26066 -1.50723 -0.0961121 -4.02643 -1.99408 5.68106 0.164492 -0.86095 0.460937 -2.12316 1.50517 -3.18835 0.947735 -3.83261 0.968122 0.570473 -3.25452 0.751748 1.52992 0.819951 -0.776248 -3.07356 0.553724 -1.08613 -0.64384 -6.98866 0.550586 0.401549 0.65018 1.69048 0.110709 -1.12746 1.83636 0.698452 0.760214 0.268867 1.71255 -1.34686 0.318011 0.285323 0.65575 1.66245 0.460461 0.44708 0.405917 1.17775 1.10318 -0.959469 -1.83386 2.07453 1.99081 0.616823 -5.44099 -5.4945 -8.68315 -2.06849 -2.48391 0.482184 0.533024 0.160085 1.01803 -0.916898 -7.20804 0.598866 0.0375973 -8.25966 -0.611599 -8.98999 -0.119335 -0.308178 0.535092 -0.212494 -4.3871 -0.854071 -0.131264 0.455955 -0.818861 0.0112179 0.746799 0.516673 0.509358 1.93242 0.598519 -0.842353 0.985748 0.0149634 -1.0158 0.411175 -0.0944213 0.235724 0.968524 0.267763 1.3553 -0.211792 -0.221994 -0.379349 -1.0222 -0.335195 0.273205 0.571069 -0.47024 -0.325278 -0.260241 -2.20502 0.0307699 -1.32861 -0.726444 -4.36877 0.616328 -0.665099 -7.99603 -3.1239 -0.393861 -0.390842 1.8806 1.18999 -0.426919 0.683033 -1.58667 -0.0800613 1.13737 1.57295 -0.106186 0.751929 -2.46432 -0.64118 -0.081955 0.750388 -6.23036 -0.847686 -2.96292 -1.58707 -0.0330483 1.9737 0.141751 -0.236733 -2.23456 0.321069 -1.81214 0.971401 -0.267587 0.25181 -0.901282 -0.0217443 -4.77483 -3.01437 0.4468 1.29722 -1.92545 -0.616614 -0.459828 1.08612 -0.366381 0.135996 0.834479 -8.17557 -0.843768 0.292549 -1.13855 -0.441151 0.788887 -1.73013 -0.432222 -0.462085 -0.157894 0.418167 -0.87652 -0.599106 0.786188 -0.820205 -0.0957103 -1.03367 -0.43826 0.0634714 -1.0021 -0.808577 -0.161166 -1.37525 -1.58945 -1.58552 0.316914 0.084157 -1.24721 -1.23543 0.436659 -1.57739 -1.02137 -1.33291 0.860223 -1.01661 -0.902694 -1.44772 -1.23264 -1.2388 -0.822576 -0.297489 -0.13732 0.0382724 -0.831621 -0.324481 -0.0650284 -0.55636 -1.49359 0.261004 -0.0648891 -0.857589 0.0310812 -4.22999 -0.300152 -1.27271 -0.686416 0.090915 -1.4913 0.103684 -1.03886 -0.809401 -0.792242 -1.20041 -1.80564 0.0752953 -1.61101 -0.360256 -0.808497 0.212008 -0.97346 -0.328524 -1.16618 -0.416067 0.163485 -1.88318 -1.52274 -1.37912 -1.11484 -1.49046 -0.895401 0.355544 -0.338803 -0.224646 -0.164158 0.407217 -0.140248 -1.14102 -0.867088 -1.36321 -0.434592 -1.42715 -0.866129 -1.31496 0.330856 -1.1713 0.52419 -0.915775 -0.0952676 -1.8859 -0.765415 -1.50656 -1.00539 -1.2791 -3.74732 -2.05428 4.58781 0.342385 -0.0337405 0.91485 1.83325 -0.359653 -4.23665 0.166392 -2.57354 1.46821 -0.724243 -4.27394 -0.315761 -1.24495 1.11208 -1.61341 -2.12316 -0.491844 0.128641 0.683301 -6.23424 0.497638 -1.90452 1.40602 -2.59806 -0.294281 1.49789 -2.21105 1.18375 -1.12015 0.240931 -1.93219 0.792682 -0.617626 -5.80719 1.26366 -3.57794 0.284351 -0.191796 -0.634091 1.02911 1.42225 1.16217 2.04406 0.0963382 0.388361 -0.878764 -4.17228 -3.60443 -5.50015 -8.96065 -2.08787 0.602837 -0.105373 -0.173352 -0.169988 0.211271 -7.81179 0.302111 -0.621473 1.66878 -0.571555 -1.39762 -0.160502 -0.225317 0.47526 -8.39413 -4.63281 -0.350465 -1.06985 0.275796 0.344719 -0.25064 0.772027 -3.23017 -1.31616 -9.45571 -0.471781 1.02589 0.16478 -1.59158 -0.281982 -0.113229 0.790543 0.180227 0.24954 0.203762 0.136578 0.423686 -0.564709 -0.973888 -0.49288 0.0231024 0.184843 0.00142915 -0.592039 -0.170356 -0.0446742 0.350767 0.152773 -0.131108 -0.146402 -0.104086 0.371755 -0.485664 -1.62796 -1.13512 -0.0373278 -0.550185 -0.255534 0.206713 -0.0149916 0.662869 -0.217601 0.349485 -5.61272 -0.938391 0.0952501 -0.747747 -2.72809 0.841424 0.108022 1.95282 -9.15702 0.161714 -3.80228 -0.910726 -0.0873361 0.923154 0.429777 0.0193228 0.150678 -0.937261 0.079897 -0.743127 0.964418 -0.54319 -0.736597 0.286654 -5.64687 -1.65227 1.85256 -0.304787 0.707182 -0.139864 2.08431 0.798894 0.0318821 -3.11947 -0.514802 1.73729 -1.96982 -1.46328 0.647652 -0.318746 0.301525 0.035666 -0.170966 1.02131 -1.16845 -1.91498 -1.68244 -0.799824 0.703863 0.959514 0.893905 1.44306 -1.50205 0.925005 0.394426 -1.76586 -0.782956 0.544599 -1.28692 -3.25269 -0.18095 -3.11727 1.57531 -0.11181 1.34309 -4.08084 0.0693545 2.20633 -0.620491 0.767893 2.01915 1.60829 -4.85721 1.00085 -2.6044 -4.52002 -2.93705 -2.0507 1.87042 1.59963 -0.153626 -1.06095 -1.2057 1.05436 -5.27872 -3.25959 0.835787 -5.32107 0.0628141 0.615222 0.0988793 1.16669 -0.149156 -2.06005 1.61403 -3.08407 0.298039 -0.904498 0.553602 -0.426966 -0.195466 0.160242 1.48453 1.03216 -3.47543 -0.877279 -0.584762 0.689331 -0.5755 0.416657 -5.74605 0.637828 -1.68808 0.05162 0.324287 -1.9646 0.969421 1.10766 0.622085 -0.0591358 -0.120349 1.89885 0.237965 -2.88423 1.398 1.27127 -2.09066 -3.14767 3.72296 -0.546622 -1.50729 -0.297665 1.28182 -2.05679 2.91472 -8.81258 -2.32877 0.217689 -5.88559 -0.201954 0.4933 -0.192376 0.321029 0.481019 1.13597 -0.440173 -5.75653 -0.539747 -4.59439 -0.453245 0.348238 0.967985 0.234137 1.53984 0.258721 -4.91538 -2.3869 -0.0486432 -1.3036 0.881004 -4.30824 0.991292 0.586541 0.461615 1.15342 0.45233 0.868084 -1.21254 0.807845 -0.468374 0.0424546 0.406843 0.874802 0.101389 -6.94442 -7.93282 0.828792 -0.748784 -1.55547 0.616252 -0.390234 1.30326 1.03114 -4.55376 0.789507 0.593576 -2.9007 -5.23198 -0.662518 -2.44779 1.27565 -1.14717 -0.273419 -0.604193 -0.588596 0.0134558 0.905282 -6.34008 0.489324 0.742732 0.293318 -0.0558526 0.248745 0.113547 -0.49613 -1.08181 -12.8438 -1.8268 0.454315 -0.199072 -0.0355939 0.231799 -0.0238228 0.514504 0.121808 -1.36032 1.73792 0.00389115 0.888206 -2.9476 0.22695 0.815737 0.837646 -0.290643 -0.22332 -0.44204 1.21089 1.63455 -0.324028 0.733182 -1.0874 -0.365777 0.217933 1.08316 0.0370217 -0.120246 -0.709676 -0.960243 -1.05093 0.0692876 -1.5722 0.215133 0.495838 0.0992426 -0.285195 0.690606 -1.20155 -0.906515 0.167205 0.0967568 0.225225 0.325343 -1.16248 -0.0123118 1.30175 0.417583 1.20826 -0.269493 -0.170787 0.250361 -0.854897 0.504855 0.0808396 -4.14569 0.132708 0.418211 1.49195 0.0440514 -0.00670277 1.85349 -0.0924445 0.453774 0.220845 -0.0358602 -0.558467 -6.75011 0.533884 -0.00971731 0.137743 -4.94028 -2.2951 -0.19913 -0.410895 -0.82391 -0.143474 -0.227299 0.299444 -0.32628 0.471476 0.1231 0.139825 -1.83612 0.0904204 -0.919404 -1.16879 -0.0525802 -0.493072 0.849329 -1.43383 -0.121702 0.528426 -0.510219 -0.114284 -0.0530456 -0.251139 -6.4192 0.28262 0.021478 0.827729 -1.08075 0.611976 -0.950199 1.61978 -0.500359 -7.23894 -0.274654 0.0763087 -0.747794 0.413589 -0.109982 -3.24167 0.410214 0.642181 -0.181186 0.140368 -0.512465 0.0422442 -2.80867 -0.468749 0.339472 -6.15871 -5.69087 0.553841 0.302242 -0.327716 0.413896 -0.542271 0.154156 -2.41187 0.22982 -0.85446 0.120862 -0.19259 -0.122441 0.00330175 -0.676575 -0.361637 0.729699 -0.789612 -0.298903 0.433429 -0.0438221 -0.701231 0.104526 -0.984827 -0.0922608 1.22397 0.0426145 1.11506 -0.478805 0.460715 -0.145255 -1.32534 -9.63112 0.0999655 0.885211 0.280168 0.636769 -2.31031 -0.0260952 -0.242487 0.493815 -0.0982858 -0.723358 -0.191192 -1.14515 -0.528971 -0.13294 -13.3886 0.507805 -0.225503 -4.38386 -13.1537 -0.222231 0.565864 -0.628545 1.31899 -0.00214545 -0.401076 -2.00107 -0.769285 1.07443 0.277933 -0.371621 0.350708 -0.375519 -0.34998 -0.134584 -0.560327 1.06973 0.757858 -0.771698 -0.392055 -0.543869 0.0662465 0.738087 0.0649895 0.565626 0.0495621 -1.15709 -1.79651 0.745564 0.244632 -1.70034 1.49637 0.195247 -0.236361 0.449817 0.4694 -1.34147 -0.149791 0.0586407 -1.89273 0.581508 -0.159441 -0.622344 0.0481211 -0.069138 0.100376 -13.829 0.670386 -0.0407609 0.415274 -0.0304286 -0.440155 0.44573 0.670219 -7.42479 -0.32224 -1.20244 -1.93295 -0.010181 0.433726 -0.465537 -0.869481 0.384945 -0.779152 0.563192 0.59804 -0.185988 -0.409046 1.1716 0.492062 -0.507237 0.483183 0.134499 0.368089 -0.107181 0.116098 0.174593 -0.310736 -6.43358 0.438889 0.531401 -5.31698 0.123256 -0.315446 -0.147054 0.269596 -0.250862 -4.28754 0.14221 -0.421559 0.879297 0.0890466 0.212321 0.708466 0.139577 -0.379214 0.225006 -1.82664 0.435352 -1.66001 0.594609 0.083557 0.294608 -0.271255 -0.431951 1.29824 0.55463 -0.358631 0.33844 -0.0141309 0.921342 0.186863 -2.17018 
