0.399133 -1.27376 0.135018 3.52475 -0.587031 4.25556 0.784534 -5.38544 -1.00448 8.23738 1.48021 -8.63269 0.49649 0.733572 0.486853 -3.60492 10.2049 -19.8735 -4.22542 16.571 0.694757 -2.85212 0.724048 -4.39369 0.156336 -2.40052 0.0759948 -5.14608 0.408782 -0.516432 0.126263 0.0663061 -8.39945 -0.758403 2.74879 -1.66836 6.56425 0.660567 -1.76724 -0.674401 8.7441 -0.381242 -4.71972 -12.2727 4.67771 1.16992 -12.1986 -1.96664 11.497 1.04815 -9.18226 -1.39263 -11.0015 6.55779 -35.4002 -2.36611 20.7437 -0.958615 9.65637 -2.78443 9.02212 -1.52235 14.2252 -0.289532 1.18671 10.5906 1.15843 -5.6874 1.30821 -11.3048 -0.461729 0.934711 -0.569121 2.30235 -0.269792 1.93111 -0.987812 3.13824 -2.78966 -11.9914 -0.583249 0.511238 -0.0019165 7.42503 10.6863 -16.5774 -2.10623 -1.79061 -1.98716 1.5347 0.789683 -9.57802 -0.684151 4.56807 -0.569463 -4.84609 -0.49177 1.18009 -3.77031 0.240104 -2.67362 0.578029 -3.55412 -2.1205 5.42598 6.96254 -26.3104 -0.0807673 -0.345203 -0.431327 1.25719 -2.2146 4.34203 -1.74989 1.56634 0.26143 -2.74785 0.028123 1.91037 0.157747 0.0698697 0.734661 -4.27607 0.0734273 1.02783 -0.330074 0.197884 0.249239 -0.738402 -0.039652 -0.712859 -3.09585 -0.270111 -0.256822 0.183643 0.115143 0.400653 -2.21591 0.120739 -1.44037 0.554127 -1.49441 -0.0133049 1.09894 0.174571 2.68291 -0.296962 1.15942 -2.19998 2.29081 -2.21935 2.85487 -0.207397 1.80809 0.0903186 -0.426483 7.21351 -22.9115 -1.95456 0.79741 0.351601 -2.87961 0.153006 -1.84284 -3.75766 0.406587 -3.84921 -3.00504 26.667 -1.27933 3.88844 -0.802352 9.22318 -2.78653 26.7602 6.88184 -42.3009 -0.0404433 -5.68672 0.438325 -4.82603 -0.833734 0.808823 -0.525635 -2.15975 -15.6771 11.4001 -0.318299 -3.22413 -0.702581 10.0509 0.420537 -4.89334 -0.196109 -3.21317 -0.736078 2.13762 7.16966 3.68511 -16.5069 -0.209001 -3.31813 -0.194437 0.564997 0.0633466 -1.60669 -0.109108 -0.619819 -5.15684 2.46696 19.7188 -48.5123 -0.753334 4.513 0.304934 -1.39769 13.9997 -45.6245 -5.94067 2.99926 0.305745 -8.43585 0.0456152 -0.600396 -0.425281 1.15841 0.648961 -10.9103 2.03395 -7.01936 -15.2427 0.181096 -2.01469 0.741479 -3.25245 5.6241 -35.565 0.736236 -10.6912 -2.27534 13.7248 1.67056 -7.47226 -7.30535 42.8002 0.0297668 -4.07033 0.348939 5.79783 6.40017 -13.7844 3.55485 3.71475 5.77086 -15.0298 -0.0583005 2.62988 0.556923 -1.54428 -1.69603 14.7189 0.23241 4.26323 -16.0858 -0.0367379 1.89144 -0.922411 0.559794 -5.80845 2.46939 -1.87457 4.3024 -0.607762 0.355166 -0.930425 -3.10729 1.68566 -6.29019 -0.0116994 1.43072 -1.27185 1.84892 -4.77193 3.56977 -0.333719 -2.09867 0.431556 2.31489 -0.902509 4.34336 -1.61613 3.07236 -1.095 0.120316 0.107587 3.42822 4.4675 0.0299062 -0.929437 -2.3441 16.4699 0.482451 4.87037 -0.0885873 2.65197 1.36153 -4.57503 3.20206 -15.0003 6.37727 -12.7002 0.377518 -1.01597 5.18966 -40.0629 -3.8523 48.6743 2.00624 -0.194929 -1.54789 14.1792 0.349403 -4.41972 1.88962 -15.3978 3.1128 -9.46007 0.160007 -0.614639 -16.826 0.8282 -1.81004 3.04325 -7.78828 -2.3004 17.5633 0.921069 -6.65388 0.759664 -5.99901 0.729979 -0.191118 -5.0624 18.5601 12.3312 -31.7071 0.142133 1.86109 1.62643 -8.10901 2.58208 -21.8121 -1.5255 7.07903 -0.0242086 -0.0664519 -0.481432 -1.30604 -0.973655 4.95391 -0.126244 0.435488 -8.69847 1.02566 -0.311747 0.636464 -0.593453 0.13891 0.551081 -0.0218947 -1.99818 0.292827 -0.22485 -0.344851 -2.66556 -3.15906 -3.21748 -0.857983 -6.72191 0.359043 -0.0441417 1.16701 -4.70176 -2.2479 -2.25805 11.4729 -16.9583 0.248295 -2.82586 1.00038 -5.99211 -1.80176 2.14831 0.00665086 -6.11304 -4.04377 0.324664 5.89889 3.39427 -3.19984 0.499187 -1.28537 1.25395 -10.7824 -3.22967 27.3862 3.91369 2.15067 -4.66187 28.094 2.492 -21.8271 0.366475 -3.59191 5.45161 -15.0668 1.28074 -4.9374 -0.293811 3.31791 0.742527 -4.47325 -0.651332 9.71646 -1.61791 11.8782 0.0639107 -3.26555 -13.1379 0.179761 -2.01611 2.94326 -13.981 -0.0603594 18.9331 5.13799 6.65104 -1.32752 7.03569 3.6272 -20.2992 0.588576 6.5058 0.00579528 23.9119 -0.12763 0.208574 0.105142 -2.14305 2.49847 -16.1835 3.42851 -16.7225 0.201627 0.246051 0.0196768 -2.51243 -1.02964 3.92447 0.277415 -7.04059 -12.8325 -1.23163 11.1736 1.1014 -17.2264 -10.8367 -16.1994 -0.259882 -0.39506 -4.92746 32.4602 6.60626 -39.0842 -1.92765 -11.4181 -0.796513 3.17675 -0.390369 0.0224204 -3.47762 15.0852 -4.68698 9.19852 -0.354475 1.04583 1.07579 -8.1214 1.81884 -11.0455 1.39492 -7.60061 0.764591 -4.61021 11.8907 -0.321736 0.733063 -0.372705 -0.12119 0.992984 -5.27493 0.100076 -0.56683 0.395068 -3.1534 -1.07961 5.98346 -0.416972 3.65148 0.37799 -2.96475 0.462418 -1.93695 -0.076418 1.56748 -0.898115 2.32687 -2.16463 9.50121 -0.16937 -1.15246 0.20393 -2.295 -1.4862 3.23792 6.87171 -25.6676 -4.64877 0.342156 -2.05617 0.0116243 -1.51135 -2.08538 13.3027 -2.11878 12.5287 1.59994 -6.48341 -2.93483 14.7871 1.71686 -14.4037 -8.41584 -23.5003 1.53015 -10.5083 -4.0807 18.9492 1.27945 -9.45203 -6.54364 -30.455 0.532992 -2.66975 0.927367 -2.13232 -2.71695 19.0749 -2.44517 13.9461 15.7779 7.05774 -25.4785 -1.07528 -1.09561 0.124572 -1.23087 -0.0825725 -1.76321 -1.85037 4.70232 -1.52075 1.32067 0.269752 1.24539 0.465922 -2.0516 0.0692127 -1.88326 -1.30316 5.87825 -0.60451 1.14333 -0.0638653 0.821425 0.184586 -1.98482 0.623063 -5.41168 -0.101818 0.429776 0.262135 -2.25421 -3.83891 6.65681 -10.4037 8.4382 21.4821 5.55599 -22.5962 0.652249 -7.17602 0.545704 15.3168 0.508818 -4.17274 0.35039 -10.5644 -1.39853 4.28599 3.3357 -18.7257 2.49868 -21.3198 2.59517 -16.9699 -0.104495 3.06631 0.0577048 -7.32129 -1.77233 8.87093 -0.11681 -0.72327 -0.289687 3.22104 -19.6215 -0.182972 -10.4448 0.628857 -6.9859 -0.780812 5.31298 0.843904 -2.22372 -16.432 -0.508102 -1.85581 -7.97269 -4.01297 6.35094 0.643254 -2.57273 1.61888 -20.1897 6.75486 -38.5638 -3.96396 21.1385 3.41749 -20.6875 -1.47187 13.4922 -4.4653 33.9667 -0.47401 -1.04102 0.854944 -4.26736 9.99854 0.863415 -7.41283 -0.980339 2.30072 0.240788 -1.82399 0.0255817 1.33054 5.06733 -19.366 1.07292 -12.9605 0.436764 -6.39309 -0.196943 -0.122377 0.443708 24.3424 -1.23063 2.98904 5.79074 -32.1363 -1.86841 13.4339 6.08499 -2.68743 1.00411 6.77143 2.43091 -11.2693 0.233919 -0.407654 -11.9656 -1.02393 3.64186 11.6961 -27.3341 -2.4284 7.3862 0.212218 -1.96177 -1.8246 2.72479 -3.60885 7.00215 0.613425 -11.0617 -0.294361 1.82331 1.01958 -3.43387 0.321251 -1.10913 -0.0401296 -0.861203 -0.523464 4.9406 -0.153348 1.5796 0.541412 -4.94251 0.1746 -0.859259 0.682316 -4.20063 -4.21323 0.67805 -4.78713 -0.23407 0.830561 1.23533 -8.1195 0.103281 -0.972151 -0.327495 -0.870632 0.439664 -1.11898 -0.380688 -0.0493381 1.03959 -0.861323 -0.179355 3.63525 0.504918 -13.702 -4.34677 12.2324 -0.988821 3.05044 0.126206 -3.50286 -1.31449 3.05268 11.9941 -27.2518 -0.742518 1.58307 -6.42099 -0.241943 3.55808 0.109876 4.70466 -1.64308 16.2783 0.34143 0.942103 0.0888502 2.65228 5.13343 -7.90895 4.75834 -0.156245 5.35186 5.01576 -1.19882 7.70314 1.40582 -11.0446 -7.09518 44.2993 0.121122 -5.52231 -0.193082 0.856652 0.444102 -1.46175 3.79932 -29.4857 0.759901 -6.56183 -15.7779 -0.0749623 -0.915993 -2.61703 5.708 13.7044 -18.6322 -2.35231 15.8205 0.525317 0.676396 2.82069 -10.3887 1.70482 -17.056 -0.467251 3.59234 -0.395744 5.6226 1.62907 4.8216 -6.95129 33.984 4.71562 -30.2281 0.0354218 6.7531 6.21621 -19.5434 -1.0292 9.01676 1.29957 -13.0831 -16.8768 1.03984 -5.00952 0.402126 -4.99113 0.261786 -2.17092 0.0747327 1.5146 0.105403 1.54162 -1.9019 6.02858 0.103444 -18.363 0.122594 0.852042 0.678542 -0.751877 0.921403 -20.8052 -1.16606 -0.00562065 -1.66866 0.502533 -0.452393 3.82978 0.321788 1.03414 -1.43141 1.73672 0.340496 -0.278396 1.61514 -0.464705 3.13647 -0.294927 -0.8704 2.35309 16.0732 -0.0475867 -3.67781 -0.510231 2.22487 -1.5243 4.09641 6.41925 -25.406 -0.636077 11.4826 -1.09227 1.84125 -5.4033 -4.95478 0.119458 -3.08022 -0.334075 0.00413972 -0.197523 -0.793063 -0.596999 -1.43534 -0.470138 2.18647 -0.0916194 2.61743 -2.59712 1.41119 -12.5652 3.903 -28.8126 0.614516 -1.64602 -0.167569 0.457274 -1.78433 16.5486 -5.99138 36.6402 3.65924 -12.6475 -2.55006 19.4629 5.1613 -7.61227 1.97197 8.3898 5.49538 -4.48821 0.127133 4.78943 -0.429135 10.6046 0.195173 0.730374 0.741079 -2.31163 -0.84612 4.34397 -16.2961 -0.439584 2.53917 -0.19026 -0.148239 0.226575 -5.26841 2.56105 -13.2762 -0.935636 5.51087 18.1217 -46.1568 -5.81172 0.30025 0.0443274 -6.45616 0.407351 -6.1947 -5.04452 -0.19702 12.4505 -43.5798 -0.330142 -0.00576892 2.06634 -7.66257 0.462158 -4.89531 -0.599276 2.03803 -0.0924337 1.76411 -11.042 -0.290944 2.62162 -1.69696 13.7724 -1.44627 7.28591 -0.781528 6.07777 -0.445241 6.15016 2.5205 -11.4225 0.86206 -4.20432 0.257567 -0.0355844 3.07548 -8.71659 2.53738 2.82406 -0.671975 14.7414 1.6153 -8.95909 1.8337 -1.78899 -1.45786 42.1691 2.36568 -5.828 1.03447 -8.21124 -14.6314 0.504777 -4.48141 0.676516 -3.51589 -0.263858 0.75487 0.662966 -4.13697 1.33516 -6.70863 -0.530197 1.83573 0.307049 -0.763144 -0.016638 -0.207029 -0.795698 2.40922 -2.61259 5.02396 -0.405638 -7.64278 0.0713039 1.35888 -1.34181 8.67099 10.447 -24.012 -1.86792 6.94229 0.314084 -1.00487 -5.8017 -0.563396 5.19095 -1.28851 7.31474 -3.03773 20.2266 0.097627 2.06293 0.245663 -1.41316 0.904997 -5.11018 4.20428 -21.0858 1.94913 -8.19031 -0.216743 -1.03696 0.50104 -0.776658 2.51921 3.92272 2.02994 5.33397 0.681198 -6.91631 2.68977 -3.9947 1.25787 33.737 3.59567 15.9593 -15.6512 -0.269016 -0.540335 -0.715185 -0.0870618 -0.229377 0.137707 -4.7299 0.426632 -0.213977 0.310158 0.250459 -0.431894 -0.162187 0.0817543 -0.263997 -0.225295 -0.103534 -51.2282 -29.4715 -0.670464 0.270578 0.610372 -0.357535 0.142776 -0.0467351 -0.922581 -0.372294 -0.410572 -0.251759 0.139569 0.0809938 -0.0755983 -0.459433 -0.19404 -0.452991 -1.09086 0.044583 -0.544822 0.0802916 0.805914 -0.290788 0.275933 -0.27975 -4.71837 -0.759701 -12.7824 0.00877648 -0.724978 -0.131233 -0.461612 1.39616 -19.4088 -0.325072 0.333302 -52.4431 0.157933 0.810624 0.377063 -0.230712 -0.0919118 0.0320117 0.322337 0.275935 0.235076 0.419653 0.00840536 0.765636 -1.15889 -0.956556 2.18299 -0.476859 0.0993297 0.4599 0.0553933 0.249909 0.306425 1.71119 -0.616064 0.502176 -1.95093 5.55282 -0.810431 -0.408558 0.571853 -1.01886 -0.222851 -0.282812 1.23298 -0.0578097 -0.200525 -28.6596 -1.73558 0.0158518 -0.148989 0.571387 -0.0052808 0.592024 0.0318886 -6.16691 -0.688344 -0.194836 -0.258691 -52.4302 0.236074 -0.250502 -0.0223149 -0.0193896 0.0616525 -0.15949 0.318703 -0.154078 0.250886 -19.93 -0.313163 -0.0590808 -0.0724572 -0.0747306 0.0734791 -0.0684242 -0.308392 -0.158161 0.0426868 0.328411 0.342901 -0.242533 -0.0815033 0.335768 -3.30085 0.457748 -0.369231 0.255313 -0.307746 1.33257 -0.968776 -0.642138 -0.562208 0.371249 -0.138311 0.0745687 0.216263 -1.36209 -0.799897 0.316547 0.252855 0.405174 0.0752211 0.0031702 -0.15318 0.317538 1.59694 -1.03916 6.04155 -1.72393 1.11244 0.238619 -0.0642462 0.0970996 1.33411 -1.58558 0.343461 0.478895 0.980243 -0.671919 -0.0569851 -6.98439 0.914361 32.6078 0.0734398 -0.592883 -0.0979293 -1.25409 1.13962 0.602385 -0.568889 -0.892587 0.489358 -0.266168 3.37551 0.187613 -0.0524633 0.332275 -0.029133 1.19774 -2.52667 -0.993893 0.633396 0.752248 -0.65666 -23 -0.296389 -3.2434 -0.191749 -0.0704784 -3.99145 -0.235535 0.421814 0.0671954 -32.1438 -2.48203 0.407396 1.94507 0.908424 -1.11161 -0.514008 -23.6162 -0.932771 -0.201192 -35.3106 1.1569 1.617 0.0797781 -11.3228 0.436569 -0.0263705 -0.062474 -1.31677 0.388408 0.362211 0.743696 0.672909 1.1849 -10.8056 1.38566 2.70927 -3.09399 -1.32527 2.23136 1.9649 -1.13496 1.48124 -4.20032 0.209489 0.145066 -1.00544 2.19268 -0.0329274 -0.472941 0.312202 0.54585 -0.820913 0.514476 -29.557 0.584601 -0.0257727 -1.58688 -0.550665 -0.219152 4.28466 -0.784983 0.68848 -0.0285003 0.271877 -0.634816 -0.72275 -35.1427 0.603973 -1.27176 -0.498426 0.430244 0.582165 -0.0200441 -0.201854 0.35472 -5.07537 -41.7224 -0.717965 -2.36565 -1.25423 1.31697 -0.147234 0.137302 -0.0630004 -0.859936 0.153194 0.337391 0.32315 0.763879 -0.048693 -0.00904556 -0.287353 -0.167153 -0.546189 0.0176218 -0.885682 -0.367373 -0.141215 0.0950849 0.448511 0.140956 -1.04131 -1.38313 -60.1969 0.349839 -2.16949 1.06704 0.557315 -0.106273 2.19932 -0.104338 -8.80626 0.194993 1.12545 -0.599574 -0.65036 -33.2551 2.15644 -11.1759 -0.518315 0.0495826 -23.1142 0.669287 -0.46192 -0.583859 0.0418866 0.276205 0.311434 -0.858731 -2.56385 0.486658 1.51474 0.348619 -0.43445 0.707359 4.11638 -2.46981 0.982691 -17.2232 1.22183 0.455454 -4.45072 0.476221 -1.86685 -0.398675 -0.244867 -0.037195 8.65832 0.88936 0.554623 -0.865239 0.0396944 0.560854 0.595281 1.08828 -0.105894 0.507283 1.62184 -0.358155 -0.222365 0.85055 0.00422646 0.237416 -0.683107 1.03909 0.255771 1.08932 -0.911511 -0.176024 -0.943089 1.48866 -1.13885 0.762852 -7.25852 -9.17587 -0.133973 0.0864405 -1.15017 0.300894 -0.652312 -0.742797 0.582807 -23.4708 -0.621538 -0.185593 1.31506 -29.4951 -0.728916 -0.531455 -0.144979 2.33744 2.94474 -0.318335 -0.318824 -0.208722 0.368587 -0.0164517 1.15975 0.11113 -0.301499 0.09196 0.0817191 0.540668 -0.24207 -0.365773 -0.101023 -2.42919 -3.64436 0.589034 -0.52888 -0.0790802 -0.323609 -45.0828 -0.712738 -0.0116284 0.076638 -0.810556 -0.0177978 -0.0845574 0.0215065 -0.000313385 -0.513539 0.0862284 -0.178154 -0.155498 -0.508279 6.50929e-05 -0.293112 -34.9225 0.0385015 -0.210273 0.235831 0.029049 -0.138473 -0.490098 0.331952 -3.93534 -1.19225 0.753185 -0.281192 -0.798626 1.0657 0.174942 0.432494 -0.398964 1.32218 -0.651061 0.263326 0.828889 -0.543712 0.521634 0.183211 -0.616609 0.12629 -0.315342 -0.00619394 0.473894 -0.16198 -0.707417 0.599271 0.0167552 -1.12544 0.273582 1.37773 -0.454448 -11.648 -0.410219 -1.35297 0.0667901 0.316805 -34.9752 -45.3631 -3.60604 -0.795934 -0.956803 -0.127015 0.455264 -0.348472 -0.152727 -1.3403 0.333052 0.345667 -0.947308 -3.89151 0.221578 1.33377 -0.102309 0.598864 -0.0411699 1.92929 0.160664 -0.965427 -0.14787 -0.513515 -0.109216 0.590772 -53.1677 0.330084 0.0114604 -0.199283 -0.994182 1.02978 0.472087 -21.0909 1.11279 -31.3921 -0.884893 0.101723 0.115604 -0.919915 -0.380757 -0.237604 -1.19247 -2.83846 0.285208 -0.108971 0.385783 -0.435651 0.778936 0.478972 0.44148 -0.0997056 -46.7948 -0.0846983 -0.163147 -0.620858 -0.189789 0.258219 -0.899313 1.00175 -0.166842 -0.185158 -0.823558 -0.472962 0.558541 0.0382114 0.317907 -0.238207 -20.4626 -0.675927 
